{"learner":{"attributes":{"best_iteration":"99","best_ntree_limit":"100","scikit_learn":"{\"n_estimators\": 100, \"objective\": \"reg:squarederror\", \"max_depth\": 3, \"max_leaves\": null, \"max_bin\": null, \"grow_policy\": null, \"learning_rate\": 0.1, \"verbosity\": null, \"booster\": null, \"tree_method\": null, \"gamma\": null, \"min_child_weight\": null, \"max_delta_step\": null, \"subsample\": null, \"sampling_method\": null, \"colsample_bytree\": null, \"colsample_bylevel\": null, \"colsample_bynode\": null, \"reg_alpha\": null, \"reg_lambda\": null, \"scale_pos_weight\": null, \"base_score\": null, \"missing\": NaN, \"num_parallel_tree\": null, \"random_state\": null, \"n_jobs\": null, \"monotone_constraints\": null, \"interaction_constraints\": null, \"importance_type\": null, \"gpu_id\": null, \"validate_parameters\": null, \"predictor\": null, \"enable_categorical\": false, \"feature_types\": null, \"max_cat_to_onehot\": null, \"max_cat_threshold\": null, \"eval_metric\": null, \"early_stopping_rounds\": null, \"callbacks\": null, \"_estimator_type\": \"regressor\"}"},"feature_names":[],"feature_types":[],"gradient_booster":{"model":{"gbtree_model_param":{"num_parallel_tree":"1","num_trees":"100","size_leaf_vector":"0"},"tree_info":[0,0,0,0,0,0,0,0,0,0,0,0,0,0,0,0,0,0,0,0,0,0,0,0,0,0,0,0,0,0,0,0,0,0,0,0,0,0,0,0,0,0,0,0,0,0,0,0,0,0,0,0,0,0,0,0,0,0,0,0,0,0,0,0,0,0,0,0,0,0,0,0,0,0,0,0,0,0,0,0,0,0,0,0,0,0,0,0,0,0,0,0,0,0,0,0,0,0,0,0],"trees":[{"base_weights":[-1.2529208E-1,-3.21666E-1,1.2468284E-1,-4.106726E-1,-2.1930332E-1,3.25816E-2,3.0932298E-1,-4.4243044E-1,-3.6478883E-1,-2.4605407E-1,-1.385424E-1,-3.2261055E-2,1.067948E-1,2.7079734E-1,3.8372207E-1],"categories":[],"categories_nodes":[],"categories_segments":[],"categories_sizes":[],"default_left":[1,1,1,1,1,1,1,0,0,0,0,0,0,0,0],"id":0,"left_children":[1,3,5,7,9,11,13,-1,-1,-1,-1,-1,-1,-1,-1],"loss_changes":[4.5594288E1,4.6476364E0,6.945206E0,2.422409E-1,4.9305344E-1,1.3219829E0,2.8590202E-1,0E0,0E0,0E0,0E0,0E0,0E0,0E0,0E0],"parents":[2147483647,0,0,1,1,2,2,3,3,4,4,5,5,6,6],"right_children":[2,4,6,8,10,12,14,-1,-1,-1,-1,-1,-1,-1,-1],"split_conditions":[4.0322167E-1,1.7662153E-1,6.755723E-1,9.669784E-2,3.1303227E-1,5.3647274E-1,8.433249E-1,-4.4243045E-2,-3.6478885E-2,-2.4605406E-2,-1.385424E-2,-3.2261056E-3,1.067948E-2,2.7079735E-2,3.8372207E-2],"split_indices":[59,59,59,59,59,59,59,0,0,0,0,0,0,0,0],"split_type":[0,0,0,0,0,0,0,0,0,0,0,0,0,0,0],"sum_hessian":[9.27E2,5.19E2,4.08E2,2.76E2,2.43E2,2.73E2,1.35E2,1.58E2,1.18E2,1.81E2,6.2E1,1.46E2,1.27E2,9.2E1,4.3E1],"tree_param":{"num_deleted":"0","num_feature":"60","num_nodes":"15","size_leaf_vector":"0"}},{"base_weights":[-1.1281274E-1,-2.897286E-1,1.12392806E-1,-3.6989677E-1,-1.9753063E-1,3.0620452E-2,2.8185558E-1,-3.9657655E-1,-3.2578677E-1,-2.2357164E-1,-1.296062E-1,-2.90569E-2,9.73529E-2,2.4772066E-1,3.4753978E-1],"categories":[],"categories_nodes":[],"categories_segments":[],"categories_sizes":[],"default_left":[1,1,1,1,1,1,1,0,0,0,0,0,0,0,0],"id":1,"left_children":[1,3,5,7,9,11,13,-1,-1,-1,-1,-1,-1,-1,-1],"loss_changes":[3.7006344E1,3.7704315E0,5.6590333E0,1.9678879E-1,4.0261745E-1,1.105958E0,2.1211052E-1,0E0,0E0,0E0,0E0,0E0,0E0,0E0,0E0],"parents":[2147483647,0,0,1,1,2,2,3,3,4,4,5,5,6,6],"right_children":[2,4,6,8,10,12,14,-1,-1,-1,-1,-1,-1,-1,-1],"split_conditions":[4.0322167E-1,1.7662153E-1,6.7879605E-1,1.01914905E-1,3.0352688E-1,5.3647274E-1,8.4950083E-1,-3.9657656E-2,-3.2578677E-2,-2.2357164E-2,-1.296062E-2,-2.9056899E-3,9.73529E-3,2.4772067E-2,3.475398E-2],"split_indices":[59,59,59,59,59,59,59,0,0,0,0,0,0,0,0],"split_type":[0,0,0,0,0,0,0,0,0,0,0,0,0,0,0],"sum_hessian":[9.27E2,5.19E2,4.08E2,2.76E2,2.43E2,2.76E2,1.32E2,1.67E2,1.09E2,1.74E2,6.9E1,1.46E2,1.3E2,9E1,4.2E1],"tree_param":{"num_deleted":"0","num_feature":"60","num_nodes":"15","size_leaf_vector":"0"}},{"base_weights":[-1.0157586E-1,-2.6062408E-1,1.0177146E-1,-3.2857162E-1,-1.7186445E-1,2.8744034E-2,2.559688E-1,-3.5288388E-1,-2.800617E-1,-1.9319105E-1,-1.0893011E-1,-2.2030514E-2,9.384944E-2,1.9638352E-1,2.8486365E-1],"categories":[],"categories_nodes":[],"categories_segments":[],"categories_sizes":[],"default_left":[1,1,1,1,1,1,1,0,0,0,0,0,0,0,0],"id":2,"left_children":[1,3,5,7,9,11,13,-1,-1,-1,-1,-1,-1,-1,-1],"loss_changes":[3.0039928E1,3.085682E0,4.5869813E0,2.4791145E-1,2.849722E-1,9.210515E-1,1.6960144E-1,0E0,0E0,0E0,0E0,0E0,0E0,0E0,0E0],"parents":[2147483647,0,0,1,1,2,2,3,3,4,4,5,5,6,6],"right_children":[2,4,6,8,10,12,14,-1,-1,-1,-1,-1,-1,-1,-1],"split_conditions":[4.0365118E-1,2.0985663E-1,6.8467456E-1,1.151506E-1,3.1869036E-1,5.5280364E-1,7.9234505E-1,-3.528839E-2,-2.800617E-2,-1.9319106E-2,-1.08930115E-2,-2.2030515E-3,9.384944E-3,1.9638352E-2,2.8486365E-2],"split_indices":[59,59,59,59,59,59,59,0,0,0,0,0,0,0,0],"split_type":[0,0,0,0,0,0,0,0,0,0,0,0,0,0,0],"sum_hessian":[9.27E2,5.2E2,4.07E2,2.93E2,2.27E2,2.77E2,1.3E2,1.91E2,1.02E2,1.68E2,5.9E1,1.56E2,1.21E2,4.5E1,8.5E1],"tree_param":{"num_deleted":"0","num_feature":"60","num_nodes":"15","size_leaf_vector":"0"}},{"base_weights":[-9.145943E-2,-2.290009E-1,9.9707276E-2,-2.9592976E-1,-1.4840947E-1,3.304743E-2,2.307393E-1,-3.362543E-1,-2.6963314E-1,-1.7472787E-1,-9.231588E-2,-1.2715733E-2,8.454144E-2,2.0434695E-1,2.947094E-1],"categories":[],"categories_nodes":[],"categories_segments":[],"categories_sizes":[],"default_left":[1,1,1,1,1,1,1,0,0,0,0,0,0,0,0],"id":3,"left_children":[1,3,5,7,9,11,13,-1,-1,-1,-1,-1,-1,-1,-1],"loss_changes":[2.4423063E1,2.868782E0,3.3901236E0,2.2109222E-1,3.4851456E-1,6.114159E-1,1.6094732E-1,0E0,0E0,0E0,0E0,0E0,0E0,0E0,0E0],"parents":[2147483647,0,0,1,1,2,2,3,3,4,4,5,5,6,6],"right_children":[2,4,6,8,10,12,14,-1,-1,-1,-1,-1,-1,-1,-1],"split_conditions":[4.199074E-1,2.0985663E-1,6.8467456E-1,7.7665776E-2,3.1840578E-1,5.5280364E-1,8.634552E-1,-3.362543E-2,-2.6963314E-2,-1.7472787E-2,-9.231589E-3,-1.2715732E-3,8.454144E-3,2.0434696E-2,2.9470941E-2],"split_indices":[59,59,59,59,58,59,59,0,0,0,0,0,0,0,0],"split_type":[0,0,0,0,0,0,0,0,0,0,0,0,0,0,0],"sum_hessian":[9.27E2,5.39E2,3.88E2,2.93E2,2.46E2,2.58E2,1.3E2,1.11E2,1.82E2,1.66E2,8E1,1.37E2,1.21E2,9.5E1,3.5E1],"tree_param":{"num_deleted":"0","num_feature":"60","num_nodes":"15","size_leaf_vector":"0"}},{"base_weights":[-8.234604E-2,-2.1136245E-1,8.332698E-2,-2.7070588E-1,-1.4368162E-1,6.922899E-3,1.8257001E-1,-3.207053E-1,-2.535463E-1,-1.8097213E-1,-1.1509582E-1,-4.4044483E-2,3.8595445E-2,1.1492748E-1,2.2175452E-1],"categories":[],"categories_nodes":[],"categories_segments":[],"categories_sizes":[],"default_left":[1,1,1,1,1,1,1,0,0,0,0,0,0,0,0],"id":4,"left_children":[1,3,5,7,9,11,13,-1,-1,-1,-1,-1,-1,-1,-1],"loss_changes":[1.9853184E1,2.0576744E0,3.084843E0,1.5634346E-1,2.4140167E-1,3.7459555E-1,4.4366026E-1,0E0,0E0,0E0,0E0,0E0,0E0,0E0,0E0],"parents":[2147483647,0,0,1,1,2,2,3,3,4,4,5,5,6,6],"right_children":[2,4,6,8,10,12,14,-1,-1,-1,-1,-1,-1,-1,-1],"split_conditions":[4.041064E-1,1.7662153E-1,6.2879527E-1,5.58055E-2,2.6302862E-1,4.8171952E-1,7.482655E-1,-3.207053E-2,-2.535463E-2,-1.8097213E-2,-1.15095815E-2,-4.4044484E-3,3.8595446E-3,1.1492748E-2,2.2175452E-2],"split_indices":[58,59,59,59,59,59,59,0,0,0,0,0,0,0,0],"split_type":[0,0,0,0,0,0,0,0,0,0,0,0,0,0,0],"sum_hessian":[9.27E2,5.21E2,4.06E2,2.76E2,2.45E2,2.3E2,1.76E2,6.6E1,2.1E2,1.04E2,1.41E2,8.8E1,1.42E2,6.6E1,1.1E2],"tree_param":{"num_deleted":"0","num_feature":"60","num_nodes":"15","size_leaf_vector":"0"}},{"base_weights":[-7.4169524E-2,-1.8891717E-1,7.710462E-2,-2.4674526E-1,-1.3059442E-1,8.00835E-3,1.6450325E-1,-2.8911343E-1,-2.3116235E-1,-1.5382726E-1,-8.809257E-2,-3.818333E-2,3.4762904E-2,1.0873685E-1,2.0351273E-1],"categories":[],"categories_nodes":[],"categories_segments":[],"categories_sizes":[],"default_left":[1,1,1,1,1,1,1,0,0,0,0,0,0,0,0],"id":5,"left_children":[1,3,5,7,9,11,13,-1,-1,-1,-1,-1,-1,-1,-1],"loss_changes":[1.6123117E1,1.74856E0,2.4202888E0,1.07465744E-1,2.4811983E-1,2.7939087E-1,3.629198E-1,0E0,0E0,0E0,0E0,0E0,0E0,0E0,0E0],"parents":[2147483647,0,0,1,1,2,2,3,3,4,4,5,5,6,6],"right_children":[2,4,6,8,10,12,14,-1,-1,-1,-1,-1,-1,-1,-1],"split_conditions":[4.0845317E-1,1.6084519E-1,6.2879527E-1,5.58055E-2,2.8888428E-1,4.8171952E-1,7.668212E-1,-2.8911343E-2,-2.3116237E-2,-1.5382727E-2,-8.809257E-3,-3.8183331E-3,3.4762905E-3,1.0873686E-2,2.0351274E-2],"split_indices":[59,59,59,59,51,59,59,0,0,0,0,0,0,0,0],"split_type":[0,0,0,0,0,0,0,0,0,0,0,0,0,0,0],"sum_hessian":[9.27E2,5.27E2,4E2,2.63E2,2.64E2,2.24E2,1.76E2,6.6E1,1.97E2,1.69E2,9.5E1,8.2E1,1.42E2,7.4E1,1.02E2],"tree_param":{"num_deleted":"0","num_feature":"60","num_nodes":"15","size_leaf_vector":"0"}},{"base_weights":[-6.680142E-2,-1.7417136E-1,6.461686E-2,-2.2304617E-1,-1.2305382E-1,1.2960363E-3,1.459234E-1,-2.606336E-1,-2.0891522E-1,-1.5249842E-1,-9.6817985E-2,-2.947965E-2,3.6218923E-2,9.166234E-2,1.8029399E-1],"categories":[],"categories_nodes":[],"categories_segments":[],"categories_sizes":[],"default_left":[1,1,1,1,1,1,1,0,0,0,0,0,0,0,0],"id":6,"left_children":[1,3,5,7,9,11,13,-1,-1,-1,-1,-1,-1,-1,-1],"loss_changes":[1.310568E1,1.2492151E0,2.151841E0,8.364773E-2,1.7990613E-1,2.5471485E-1,3.2476616E-1,0E0,0E0,0E0,0E0,0E0,0E0,0E0,0E0],"parents":[2147483647,0,0,1,1,2,2,3,3,4,4,5,5,6,6],"right_children":[2,4,6,8,10,12,14,-1,-1,-1,-1,-1,-1,-1,-1],"split_conditions":[3.8734394E-1,1.567948E-1,6.1985785E-1,5.58055E-2,2.6048815E-1,5.105869E-1,7.482655E-1,-2.6063358E-2,-2.0891523E-2,-1.5249843E-2,-9.6817985E-3,-2.9479652E-3,3.6218923E-3,9.166234E-3,1.80294E-2],"split_indices":[59,59,59,59,59,59,59,0,0,0,0,0,0,0,0],"split_type":[0,0,0,0,0,0,0,0,0,0,0,0,0,0,0],"sum_hessian":[9.27E2,5.1E2,4.17E2,2.59E2,2.51E2,2.35E2,1.82E2,6.6E1,1.93E2,1.16E2,1.35E2,1.25E2,1.1E2,7.2E1,1.1E2],"tree_param":{"num_deleted":"0","num_feature":"60","num_nodes":"15","size_leaf_vector":"0"}},{"base_weights":[-6.016871E-2,-1.4596388E-1,7.377133E-2,-1.8992525E-1,-8.413596E-2,3.1229395E-2,1.575531E-1,-2.1139738E-1,-1.5694067E-1,-1.0610168E-1,-5.018613E-2,4.6799397E-3,7.086848E-2,1.3520558E-1,2.0718314E-1],"categories":[],"categories_nodes":[],"categories_segments":[],"categories_sizes":[],"default_left":[1,1,1,1,1,1,1,0,0,0,0,0,0,0,0],"id":7,"left_children":[1,3,5,7,9,11,13,-1,-1,-1,-1,-1,-1,-1,-1],"loss_changes":[1.0674795E1,1.5224304E0,1.2888981E0,2.0054531E-1,1.7141378E-1,2.5434816E-1,1.0729909E-1,0E0,0E0,0E0,0E0,0E0,0E0,0E0,0E0],"parents":[2147483647,0,0,1,1,2,2,3,3,4,4,5,5,6,6],"right_children":[2,4,6,8,10,12,14,-1,-1,-1,-1,-1,-1,-1,-1],"split_conditions":[4.431538E-1,2.304478E-1,7.17963E-1,1.188249E-1,3.3718786E-1,5.927986E-1,8.634552E-1,-2.113974E-2,-1.5694067E-2,-1.0610168E-2,-5.0186133E-3,4.67994E-4,7.086848E-3,1.3520558E-2,2.0718314E-2],"split_indices":[59,59,59,59,59,59,59,0,0,0,0,0,0,0,0],"split_type":[0,0,0,0,0,0,0,0,0,0,0,0,0,0,0],"sum_hessian":[9.27E2,5.65E2,3.62E2,3.29E2,2.36E2,2.41E2,1.21E2,1.96E2,1.33E2,1.42E2,9.4E1,1.45E2,9.6E1,8.6E1,3.5E1],"tree_param":{"num_deleted":"0","num_feature":"60","num_nodes":"15","size_leaf_vector":"0"}},{"base_weights":[-5.4163337E-2,-1.387563E-1,5.6382738E-2,-1.7299986E-1,-8.6404115E-2,9.504106E-3,1.2606327E-1,-1.906399E-1,-1.4362743E-1,-9.80649E-2,-5.2585814E-2,-1.9216932E-2,3.7447363E-2,9.022044E-2,1.5668927E-1],"categories":[],"categories_nodes":[],"categories_segments":[],"categories_sizes":[],"default_left":[1,1,1,1,1,1,1,0,0,0,0,0,0,0,0],"id":8,"left_children":[1,3,5,7,9,11,13,-1,-1,-1,-1,-1,-1,-1,-1],"loss_changes":[8.685943E0,9.2802525E-1,1.3152126E0,1.3686657E-1,7.765627E-2,1.9493899E-1,1.6369462E-1,0E0,0E0,0E0,0E0,0E0,0E0,0E0,0E0],"parents":[2147483647,0,0,1,1,2,2,3,3,4,4,5,5,6,6],"right_children":[2,4,6,8,10,12,14,-1,-1,-1,-1,-1,-1,-1,-1],"split_conditions":[4.0741283E-1,2.2157875E-1,6.423626E-1,1.1654022E-1,3.3449936E-1,5.1626086E-1,7.9234505E-1,-1.906399E-2,-1.4362744E-2,-9.8064905E-3,-5.2585816E-3,-1.9216932E-3,3.7447363E-3,9.022044E-3,1.5668927E-2],"split_indices":[56,59,59,59,59,59,59,0,0,0,0,0,0,0,0],"split_type":[0,0,0,0,0,0,0,0,0,0,0,0,0,0,0],"sum_hessian":[9.27E2,5.25E2,4.02E2,3.16E2,2.09E2,2.41E2,1.61E2,1.94E2,1.22E2,1.54E2,5.5E1,1.19E2,1.22E2,7.6E1,8.5E1],"tree_param":{"num_deleted":"0","num_feature":"60","num_nodes":"15","size_leaf_vector":"0"}},{"base_weights":[-4.8770685E-2,-1.1839911E-1,6.042293E-2,-1.5205137E-1,-6.4629175E-2,2.5710305E-2,1.2849933E-1,-1.7006893E-1,-1.2340096E-1,-8.184417E-2,-4.1540585E-2,4.3042796E-3,5.856268E-2,1.09102055E-1,1.7180663E-1],"categories":[],"categories_nodes":[],"categories_segments":[],"categories_sizes":[],"default_left":[1,1,1,1,1,1,1,0,0,0,0,0,0,0,0],"id":9,"left_children":[1,3,5,7,9,11,13,-1,-1,-1,-1,-1,-1,-1,-1],"loss_changes":[7.0627193E0,1.0161476E0,8.521421E-1,1.5865421E-1,8.404356E-2,1.692285E-1,8.374095E-2,0E0,0E0,0E0,0E0,0E0,0E0,0E0,0E0],"parents":[2147483647,0,0,1,1,2,2,3,3,4,4,5,5,6,6],"right_children":[2,4,6,8,10,12,14,-1,-1,-1,-1,-1,-1,-1,-1],"split_conditions":[4.4350207E-1,2.4189624E-1,7.17963E-1,1.3184115E-1,3.3718786E-1,5.961901E-1,8.634552E-1,-1.7006895E-2,-1.2340096E-2,-8.184417E-3,-4.1540586E-3,4.3042796E-4,5.856268E-3,1.0910206E-2,1.7180664E-2],"split_indices":[59,59,59,59,59,59,59,0,0,0,0,0,0,0,0],"split_type":[0,0,0,0,0,0,0,0,0,0,0,0,0,0,0],"sum_hessian":[9.27E2,5.66E2,3.61E2,3.47E2,2.19E2,2.4E2,1.21E2,2.1E2,1.37E2,1.24E2,9.5E1,1.46E2,9.4E1,8.6E1,3.5E1],"tree_param":{"num_deleted":"0","num_feature":"60","num_nodes":"15","size_leaf_vector":"0"}},{"base_weights":[-4.3901496E-2,-1.12665415E-1,4.5958865E-2,-1.4528948E-1,-7.6343074E-2,2.3738777E-3,9.579077E-2,-1.7860252E-1,-1.3396919E-1,-9.795884E-2,-6.0126536E-2,-2.435996E-2,1.9570865E-2,7.595173E-2,1.4238423E-1],"categories":[],"categories_nodes":[],"categories_segments":[],"categories_sizes":[],"default_left":[1,1,1,1,1,1,1,0,0,0,0,0,0,0,0],"id":10,"left_children":[1,3,5,7,9,11,13,-1,-1,-1,-1,-1,-1,-1,-1],"loss_changes":[5.73943E0,6.1220884E-1,8.7505764E-1,8.015633E-2,8.2093835E-2,9.97809E-2,1.629672E-1,0E0,0E0,0E0,0E0,0E0,0E0,0E0,0E0],"parents":[2147483647,0,0,1,1,2,2,3,3,4,4,5,5,6,6],"right_children":[2,4,6,8,10,12,14,-1,-1,-1,-1,-1,-1,-1,-1],"split_conditions":[4.0741283E-1,1.7344853E-1,6.155693E-1,5.58055E-2,2.6302862E-1,4.8171952E-1,8.222288E-1,-1.7860252E-2,-1.3396919E-2,-9.795885E-3,-6.0126535E-3,-2.435996E-3,1.9570866E-3,7.5951735E-3,1.4238424E-2],"split_indices":[56,59,59,59,59,59,57,0,0,0,0,0,0,0,0],"split_type":[0,0,0,0,0,0,0,0,0,0,0,0,0,0,0],"sum_hessian":[9.27E2,5.25E2,4.02E2,2.75E2,2.5E2,2.15E2,1.87E2,6.6E1,2.09E2,1.05E2,1.45E2,8.4E1,1.31E2,1.33E2,5.4E1],"tree_param":{"num_deleted":"0","num_feature":"60","num_nodes":"15","size_leaf_vector":"0"}},{"base_weights":[-3.9539054E-2,-1.0213296E-1,4.083825E-2,-1.3407826E-1,-7.2504915E-2,1.1592272E-2,1.0236723E-1,-1.6194257E-1,-1.2382482E-1,-9.444214E-2,-5.7795722E-2,-1.2702762E-2,3.511587E-2,8.650841E-2,1.4181389E-1],"categories":[],"categories_nodes":[],"categories_segments":[],"categories_sizes":[],"default_left":[1,1,1,1,1,1,1,0,0,0,0,0,0,0,0],"id":11,"left_children":[1,3,5,7,9,11,13,-1,-1,-1,-1,-1,-1,-1,-1],"loss_changes":[4.6730585E0,4.843397E-1,7.311997E-1,5.137396E-2,8.26329E-2,1.5875341E-1,6.96826E-2,0E0,0E0,0E0,0E0,0E0,0E0,0E0,0E0],"parents":[2147483647,0,0,1,1,2,2,3,3,4,4,5,5,6,6],"right_children":[2,4,6,8,10,12,14,-1,-1,-1,-1,-1,-1,-1,-1],"split_conditions":[4.041064E-1,1.4926435E-1,6.8467456E-1,4.0427744E-2,2.4671763E-1,5.2763075E-1,8.634552E-1,-1.6194258E-2,-1.2382482E-2,-9.4442135E-3,-5.7795723E-3,-1.2702763E-3,3.5115872E-3,8.650841E-3,1.41813895E-2],"split_indices":[58,59,59,59,59,59,59,0,0,0,0,0,0,0,0],"split_type":[0,0,0,0,0,0,0,0,0,0,0,0,0,0,0],"sum_hessian":[9.27E2,5.21E2,4.06E2,2.49E2,2.72E2,2.76E2,1.3E2,6.3E1,1.86E2,1.07E2,1.65E2,1.36E2,1.4E2,9.5E1,3.5E1],"tree_param":{"num_deleted":"0","num_feature":"60","num_nodes":"15","size_leaf_vector":"0"}},{"base_weights":[-3.5605334E-2,-8.672316E-2,4.45588E-2,-1.1126118E-1,-4.751429E-2,1.8718017E-2,9.52397E-2,-1.3411029E-1,-9.684946E-2,-6.08977E-2,-2.9915761E-2,2.6375037E-3,4.2562928E-2,8.057806E-2,1.2802644E-1],"categories":[],"categories_nodes":[],"categories_segments":[],"categories_sizes":[],"default_left":[1,1,1,1,1,1,1,0,0,0,0,0,0,0,0],"id":12,"left_children":[1,3,5,7,9,11,13,-1,-1,-1,-1,-1,-1,-1,-1],"loss_changes":[3.8066378E0,5.402293E-1,4.7230476E-1,1.0160589E-1,4.999444E-2,9.22964E-2,4.8330307E-2,0E0,0E0,0E0,0E0,0E0,0E0,0E0,0E0],"parents":[2147483647,0,0,1,1,2,2,3,3,4,4,5,5,6,6],"right_children":[2,4,6,8,10,12,14,-1,-1,-1,-1,-1,-1,-1,-1],"split_conditions":[4.4350207E-1,2.4189624E-1,7.17963E-1,8.490577E-2,3.3449936E-1,5.927986E-1,8.634552E-1,-1.3411029E-2,-9.684945E-3,-6.0897702E-3,-2.9915762E-3,2.6375038E-4,4.2562927E-3,8.057806E-3,1.2802645E-2],"split_indices":[59,59,59,59,59,59,59,0,0,0,0,0,0,0,0],"split_type":[0,0,0,0,0,0,0,0,0,0,0,0,0,0,0],"sum_hessian":[9.27E2,5.66E2,3.61E2,3.47E2,2.19E2,2.4E2,1.21E2,1.31E2,2.16E2,1.23E2,9.6E1,1.44E2,9.6E1,8.6E1,3.5E1],"tree_param":{"num_deleted":"0","num_feature":"60","num_nodes":"15","size_leaf_vector":"0"}},{"base_weights":[-3.2052126E-2,-8.6627886E-2,2.8936878E-2,-1.11571856E-1,-6.502801E-2,-2.325474E-3,7.0687816E-2,-1.3279986E-1,-1.0255244E-1,-7.777702E-2,-5.1984005E-2,-2.089405E-2,1.4713338E-2,5.174755E-2,1.0048397E-1],"categories":[],"categories_nodes":[],"categories_segments":[],"categories_sizes":[],"default_left":[1,1,1,1,1,1,1,0,0,0,0,0,0,0,0],"id":13,"left_children":[1,3,5,7,9,11,13,-1,-1,-1,-1,-1,-1,-1,-1],"loss_changes":[3.0913746E0,2.567501E-1,5.7316136E-1,2.965188E-2,4.002583E-2,8.003682E-2,1.0089749E-1,0E0,0E0,0E0,0E0,0E0,0E0,0E0,0E0],"parents":[2147483647,0,0,1,1,2,2,3,3,4,4,5,5,6,6],"right_children":[2,4,6,8,10,12,14,-1,-1,-1,-1,-1,-1,-1,-1],"split_conditions":[3.5941175E-1,1.3948196E-1,6.155693E-1,4.0427744E-2,2.4671763E-1,4.8171952E-1,8.047429E-1,-1.3279987E-2,-1.0255244E-2,-7.777702E-3,-5.1984005E-3,-2.0894052E-3,1.4713338E-3,5.174755E-3,1.0048397E-2],"split_indices":[59,59,59,59,59,59,58,0,0,0,0,0,0,0,0],"split_type":[0,0,0,0,0,0,0,0,0,0,0,0,0,0,0],"sum_hessian":[9.27E2,4.89E2,4.38E2,2.25E2,2.64E2,2.51E2,1.87E2,6.3E1,1.62E2,1.31E2,1.33E2,1.2E2,1.31E2,1.16E2,7.1E1],"tree_param":{"num_deleted":"0","num_feature":"60","num_nodes":"15","size_leaf_vector":"0"}},{"base_weights":[-2.8870521E-2,-7.0401885E-2,3.6259737E-2,-9.280745E-2,-4.1824322E-2,1.632929E-2,8.118057E-2,-1.1497411E-1,-8.351242E-2,-5.443188E-2,-2.5691442E-2,-2.2461E-3,3.1690456E-2,7.3227815E-2,1.3105126E-1],"categories":[],"categories_nodes":[],"categories_segments":[],"categories_sizes":[],"default_left":[1,1,1,1,1,1,1,0,0,0,0,0,0,0,0],"id":14,"left_children":[1,3,5,7,9,11,13,-1,-1,-1,-1,-1,-1,-1,-1],"loss_changes":[2.5127447E0,3.5916662E-1,3.227701E-1,5.571294E-2,4.9654007E-2,7.1976766E-2,3.4427106E-2,0E0,0E0,0E0,0E0,0E0,0E0,0E0,0E0],"parents":[2147483647,0,0,1,1,2,2,3,3,4,4,5,5,6,6],"right_children":[2,4,6,8,10,12,14,-1,-1,-1,-1,-1,-1,-1,-1],"split_conditions":[4.4350207E-1,2.2157875E-1,7.482655E-1,6.826034E-2,3.1558818E-1,5.561439E-1,9.162067E-1,-1.1497411E-2,-8.351242E-3,-5.4431884E-3,-2.5691444E-3,-2.2461E-4,3.1690456E-3,7.3227817E-3,1.3105126E-2],"split_indices":[59,59,59,59,56,58,59,0,0,0,0,0,0,0,0],"split_type":[0,0,0,0,0,0,0,0,0,0,0,0,0,0,0],"sum_hessian":[9.27E2,5.66E2,3.61E2,3.16E2,2.5E2,2.51E2,1.1E2,9E1,2.26E2,1.39E2,1.11E2,1.14E2,1.37E2,9.7E1,1.3E1],"tree_param":{"num_deleted":"0","num_feature":"60","num_nodes":"15","size_leaf_vector":"0"}},{"base_weights":[-2.5988312E-2,-6.705995E-2,2.7683327E-2,-8.9169785E-2,-4.716641E-2,4.4086697E-3,6.228076E-2,-1.0840961E-1,-8.203184E-2,-5.677177E-2,-3.166473E-2,-1.0877046E-2,1.7661572E-2,4.9650893E-2,9.12423E-2],"categories":[],"categories_nodes":[],"categories_segments":[],"categories_sizes":[],"default_left":[1,1,1,1,1,1,1,0,0,0,0,0,0,0,0],"id":15,"left_children":[1,3,5,7,9,11,13,-1,-1,-1,-1,-1,-1,-1,-1],"loss_changes":[2.047523E0,2.2715163E-1,3.2423848E-1,2.5165558E-2,3.974521E-2,4.921649E-2,5.4726124E-2,0E0,0E0,0E0,0E0,0E0,0E0,0E0,0E0],"parents":[2147483647,0,0,1,1,2,2,3,3,4,4,5,5,6,6],"right_children":[2,4,6,8,10,12,14,-1,-1,-1,-1,-1,-1,-1,-1],"split_conditions":[4.0741283E-1,1.4872757E-1,6.423626E-1,4.0427744E-2,2.805819E-1,5.107945E-1,8.3390826E-1,-1.0840962E-2,-8.203184E-3,-5.677177E-3,-3.166473E-3,-1.0877046E-3,1.7661572E-3,4.9650893E-3,9.12423E-3],"split_indices":[56,59,59,59,58,59,57,0,0,0,0,0,0,0,0],"split_type":[0,0,0,0,0,0,0,0,0,0,0,0,0,0,0],"sum_hessian":[9.27E2,5.25E2,4.02E2,2.47E2,2.78E2,2.41E2,1.61E2,6.3E1,1.84E2,1.7E2,1.08E2,1.12E2,1.29E2,1.14E2,4.7E1],"tree_param":{"num_deleted":"0","num_feature":"60","num_nodes":"15","size_leaf_vector":"0"}},{"base_weights":[-2.3403618E-2,-5.402041E-2,3.521596E-2,-7.348351E-2,-2.806155E-2,1.839791E-2,6.656512E-2,-8.8136904E-2,-6.2456124E-2,-3.861068E-2,-1.5362488E-2,6.958149E-3,2.9448261E-2,5.9622373E-2,1.1040969E-1],"categories":[],"categories_nodes":[],"categories_segments":[],"categories_sizes":[],"default_left":[1,1,1,1,1,1,1,0,0,0,0,0,0,0,0],"id":16,"left_children":[1,3,5,7,9,11,13,-1,-1,-1,-1,-1,-1,-1,-1],"loss_changes":[1.6674243E0,3.0613434E-1,1.669623E-1,5.0728202E-2,3.4639373E-2,2.6215486E-2,2.7205706E-2,0E0,0E0,0E0,0E0,0E0,0E0,0E0,0E0],"parents":[2147483647,0,0,1,1,2,2,3,3,4,4,5,5,6,6],"right_children":[2,4,6,8,10,12,14,-1,-1,-1,-1,-1,-1,-1,-1],"split_conditions":[4.8171952E-1,2.4189624E-1,7.482655E-1,9.094467E-2,3.5941175E-1,5.961901E-1,9.162067E-1,-8.81369E-3,-6.2456126E-3,-3.8610678E-3,-1.5362488E-3,6.958149E-4,2.9448261E-3,5.9622373E-3,1.104097E-2],"split_indices":[59,59,59,59,59,59,59,0,0,0,0,0,0,0,0],"split_type":[0,0,0,0,0,0,0,0,0,0,0,0,0,0,0],"sum_hessian":[9.27E2,6.09E2,3.18E2,3.47E2,2.62E2,2.08E2,1.1E2,1.46E2,2.01E2,1.42E2,1.2E2,1.03E2,1.05E2,9.7E1,1.3E1],"tree_param":{"num_deleted":"0","num_feature":"60","num_nodes":"15","size_leaf_vector":"0"}},{"base_weights":[-2.1063058E-2,-5.1499486E-2,2.6884187E-2,-7.201397E-2,-3.4436278E-2,1.2104917E-2,6.0061775E-2,-8.98675E-2,-6.62401E-2,-4.312138E-2,-1.8759668E-2,1.1358075E-4,2.4987234E-2,5.1220275E-2,8.842772E-2],"categories":[],"categories_nodes":[],"categories_segments":[],"categories_sizes":[],"default_left":[1,1,1,1,1,1,1,0,0,0,0,0,0,0,0],"id":17,"left_children":[1,3,5,7,9,11,13,-1,-1,-1,-1,-1,-1,-1,-1],"loss_changes":[1.3556546E0,1.963445E-1,1.7628586E-1,2.0539641E-2,4.167074E-2,3.8770683E-2,2.330926E-2,0E0,0E0,0E0,0E0,0E0,0E0,0E0,0E0],"parents":[2147483647,0,0,1,1,2,2,3,3,4,4,5,5,6,6],"right_children":[2,4,6,8,10,12,14,-1,-1,-1,-1,-1,-1,-1,-1],"split_conditions":[4.4414097E-1,1.5481025E-1,7.482655E-1,3.1253733E-2,3.1558818E-1,5.8470875E-1,8.8224804E-1,-8.986751E-3,-6.6240104E-3,-4.312138E-3,-1.8759668E-3,1.13580745E-5,2.4987233E-3,5.122028E-3,8.842773E-3],"split_indices":[58,58,59,59,56,59,59,0,0,0,0,0,0,0,0],"split_type":[0,0,0,0,0,0,0,0,0,0,0,0,0,0,0],"sum_hessian":[9.27E2,5.67E2,3.6E2,2.56E2,3.11E2,2.5E2,1.1E2,5.9E1,1.97E2,1.99E2,1.12E2,1.3E2,1.2E2,8.6E1,2.4E1],"tree_param":{"num_deleted":"0","num_feature":"60","num_nodes":"15","size_leaf_vector":"0"}},{"base_weights":[-1.8962491E-2,-4.390234E-2,2.8787574E-2,-5.972749E-2,-2.265471E-2,1.7324857E-2,5.9642084E-2,-7.106603E-2,-4.9975894E-2,-3.1028746E-2,-1.2640101E-2,6.031883E-3,2.631284E-2,6.770649E-2,3.145672E-2],"categories":[],"categories_nodes":[],"categories_segments":[],"categories_sizes":[],"default_left":[1,1,1,1,1,1,1,0,0,0,0,0,0,0,0],"id":18,"left_children":[1,3,5,7,9,11,13,-1,-1,-1,-1,-1,-1,-1,-1],"loss_changes":[1.1064E0,2.0375752E-1,1.11789525E-1,3.5036802E-2,2.1579817E-2,2.3592532E-2,1.7417789E-2,0E0,0E0,0E0,0E0,0E0,0E0,0E0,0E0],"parents":[2147483647,0,0,1,1,2,2,3,3,4,4,5,5,6,6],"right_children":[2,4,6,8,10,12,14,-1,-1,-1,-1,-1,-1,-1,-1],"split_conditions":[4.8171952E-1,2.420178E-1,7.9234505E-1,9.669784E-2,3.5941175E-1,5.973712E-1,7.992252E-1,-7.106603E-3,-4.9975896E-3,-3.1028746E-3,-1.2640101E-3,6.031883E-4,2.631284E-3,6.770649E-3,3.1456721E-3],"split_indices":[59,59,59,59,59,59,24,0,0,0,0,0,0,0,0],"split_type":[0,0,0,0,0,0,0,0,0,0,0,0,0,0,0],"sum_hessian":[9.27E2,6.09E2,3.18E2,3.48E2,2.61E2,2.33E2,8.5E1,1.58E2,1.9E2,1.41E2,1.2E2,1.04E2,1.29E2,6.5E1,2E1],"tree_param":{"num_deleted":"0","num_feature":"60","num_nodes":"15","size_leaf_vector":"0"}},{"base_weights":[-1.7069828E-2,-3.953911E-2,2.5950022E-2,-5.342689E-2,-1.9864002E-2,1.5573595E-2,5.3881813E-2,-6.149505E-2,-4.148262E-2,-2.7370784E-2,-1.1386541E-2,5.4344283E-3,2.3643125E-2,-2.94801E-2,5.6217574E-2],"categories":[],"categories_nodes":[],"categories_segments":[],"categories_sizes":[],"default_left":[1,1,1,1,1,1,1,0,0,0,0,0,0,0,0],"id":19,"left_children":[1,3,5,7,9,11,13,-1,-1,-1,-1,-1,-1,-1,-1],"loss_changes":[8.980542E-1,1.6561735E-1,9.1617376E-2,3.1852484E-2,1.585251E-2,1.9017E-2,1.8402666E-2,0E0,0E0,0E0,0E0,0E0,0E0,0E0,0E0],"parents":[2147483647,0,0,1,1,2,2,3,3,4,4,5,5,6,6],"right_children":[2,4,6,8,10,12,14,-1,-1,-1,-1,-1,-1,-1,-1],"split_conditions":[4.8171952E-1,2.4671763E-1,7.9234505E-1,1.3184115E-1,3.5941175E-1,5.973712E-1,3.114601E-1,-6.1495053E-3,-4.148262E-3,-2.7370786E-3,-1.1386541E-3,5.4344285E-4,2.3643125E-3,-2.94801E-3,5.6217574E-3],"split_indices":[59,59,58,59,59,59,0,0,0,0,0,0,0,0,0],"split_type":[0,0,0,0,0,0,0,0,0,0,0,0,0,0,0],"sum_hessian":[9.27E2,6.09E2,3.18E2,3.56E2,2.53E2,2.33E2,8.5E1,2.1E2,1.46E2,1.33E2,1.2E2,1.04E2,1.29E2,2E0,8.3E1],"tree_param":{"num_deleted":"0","num_feature":"60","num_nodes":"15","size_leaf_vector":"0"}},{"base_weights":[-1.5372102E-2,-3.5608433E-2,2.337252E-2,-4.992972E-2,-2.0045657E-2,1.3916896E-2,4.882884E-2,-6.6208355E-2,-4.4962276E-2,-2.8895358E-2,-1.1923051E-2,6.510866E-3,2.2798603E-2,4.2284597E-2,8.232462E-2],"categories":[],"categories_nodes":[],"categories_segments":[],"categories_sizes":[],"default_left":[1,1,1,1,1,1,1,0,0,0,0,0,0,0,0],"id":20,"left_children":[1,3,5,7,9,11,13,-1,-1,-1,-1,-1,-1,-1,-1],"loss_changes":[7.284298E-1,1.3495529E-1,7.6105475E-2,2.2656739E-2,2.0788968E-2,1.5243657E-2,1.5370533E-2,0E0,0E0,0E0,0E0,0E0,0E0,0E0,0E0],"parents":[2147483647,0,0,1,1,2,2,3,3,4,4,5,5,6,6],"right_children":[2,4,6,8,10,12,14,-1,-1,-1,-1,-1,-1,-1,-1],"split_conditions":[4.8171952E-1,2.2157875E-1,7.9234505E-1,6.115341E-2,3.1558818E-1,6.1277926E-1,9.173045E-1,-6.6208355E-3,-4.4962275E-3,-2.8895359E-3,-1.1923051E-3,6.510866E-4,2.2798604E-3,4.2284597E-3,8.232462E-3],"split_indices":[59,59,59,59,56,58,59,0,0,0,0,0,0,0,0],"split_type":[0,0,0,0,0,0,0,0,0,0,0,0,0,0,0],"sum_hessian":[9.27E2,6.09E2,3.18E2,3.16E2,2.93E2,2.33E2,8.5E1,7.1E1,2.45E2,1.39E2,1.54E2,1.28E2,1.05E2,7.3E1,1.2E1],"tree_param":{"num_deleted":"0","num_feature":"60","num_nodes":"15","size_leaf_vector":"0"}},{"base_weights":[-1.3834683E-2,-3.3977646E-2,1.7896725E-2,-4.8254643E-2,-2.2841595E-2,6.2888497E-3,3.7054688E-2,-6.1484866E-2,-4.379926E-2,-2.9764244E-2,-1.390555E-2,-1.3744954E-3,1.3964359E-2,4.473286E-2,1.7508753E-2],"categories":[],"categories_nodes":[],"categories_segments":[],"categories_sizes":[],"default_left":[1,1,1,1,1,1,1,0,0,0,0,0,0,0,0],"id":21,"left_children":[1,3,5,7,9,11,13,-1,-1,-1,-1,-1,-1,-1,-1],"loss_changes":[5.9375286E-1,8.9203775E-2,8.0047324E-2,1.19255185E-2,1.9443512E-2,1.3312533E-2,1.9627258E-2,0E0,0E0,0E0,0E0,0E0,0E0,0E0,0E0],"parents":[2147483647,0,0,1,1,2,2,3,3,4,4,5,5,6,6],"right_children":[2,4,6,8,10,12,14,-1,-1,-1,-1,-1,-1,-1,-1],"split_conditions":[4.4414097E-1,1.4872757E-1,6.755723E-1,3.1253733E-2,2.830629E-1,5.561439E-1,7.858411E-1,-6.148487E-3,-4.379926E-3,-2.9764245E-3,-1.3905551E-3,-1.3744955E-4,1.3964359E-3,4.473286E-3,1.7508753E-3],"split_indices":[58,58,59,59,58,58,24,0,0,0,0,0,0,0,0],"split_type":[0,0,0,0,0,0,0,0,0,0,0,0,0,0,0],"sum_hessian":[9.27E2,5.67E2,3.6E2,2.47E2,3.2E2,2.25E2,1.35E2,5.9E1,1.88E2,1.79E2,1.41E2,1.13E2,1.12E2,9.6E1,3.9E1],"tree_param":{"num_deleted":"0","num_feature":"60","num_nodes":"15","size_leaf_vector":"0"}},{"base_weights":[-1.2459201E-2,-3.0670656E-2,1.609979E-2,-4.3420725E-2,-2.055057E-2,7.035656E-3,3.653278E-2,-5.5438854E-2,-3.9418064E-2,-2.5965873E-2,-1.1398934E-2,5.5589406E-3,5.1380605E-2,4.5609035E-2,1.9282201E-2],"categories":[],"categories_nodes":[],"categories_segments":[],"categories_sizes":[],"default_left":[1,1,1,1,1,1,1,0,0,0,0,0,0,0,0],"id":22,"left_children":[1,3,5,7,9,11,13,-1,-1,-1,-1,-1,-1,-1,-1],"loss_changes":[4.8314732E-1,7.2268665E-2,6.6788025E-2,9.840816E-3,1.5463725E-2,1.6216565E-2,1.6499907E-2,0E0,0E0,0E0,0E0,0E0,0E0,0E0,0E0],"parents":[2147483647,0,0,1,1,2,2,3,3,4,4,5,5,6,6],"right_children":[2,4,6,8,10,12,14,-1,-1,-1,-1,-1,-1,-1,-1],"split_conditions":[4.4350207E-1,1.4926435E-1,7.482655E-1,3.1253733E-2,3.0089563E-1,8.2424426E-1,7.0404315E-1,-5.5438853E-3,-3.9418065E-3,-2.5965874E-3,-1.1398934E-3,5.5589405E-4,5.1380605E-3,4.5609036E-3,1.9282202E-3],"split_indices":[59,59,59,59,59,44,19,0,0,0,0,0,0,0,0],"split_type":[0,0,0,0,0,0,0,0,0,0,0,0,0,0,0],"sum_hessian":[9.27E2,5.66E2,3.61E2,2.49E2,3.17E2,2.51E2,1.1E2,5.9E1,1.9E2,1.98E2,1.19E2,2.44E2,7E0,7.1E1,3.9E1],"tree_param":{"num_deleted":"0","num_feature":"60","num_nodes":"15","size_leaf_vector":"0"}},{"base_weights":[-1.1214398E-2,-2.6139809E-2,1.736151E-2,-3.506341E-2,-1.251831E-2,1.0128627E-2,3.683981E-2,-4.5310862E-2,-2.9984059E-2,-1.9760232E-2,-8.909334E-3,8.0993725E-3,3.7271008E-2,-3.437199E-2,3.8944516E-2],"categories":[],"categories_nodes":[],"categories_segments":[],"categories_sizes":[],"default_left":[1,1,1,1,1,1,1,0,0,0,0,0,0,0,0],"id":23,"left_children":[1,3,5,7,9,11,13,-1,-1,-1,-1,-1,-1,-1,-1],"loss_changes":[3.962525E-1,7.3708266E-2,4.4568963E-2,1.779592E-2,6.1749816E-3,1.2586568E-2,1.4228292E-2,0E0,0E0,0E0,0E0,0E0,0E0,0E0,0E0],"parents":[2147483647,0,0,1,1,2,2,3,3,4,4,5,5,6,6],"right_children":[2,4,6,8,10,12,14,-1,-1,-1,-1,-1,-1,-1,-1],"split_conditions":[4.8171952E-1,2.5752002E-1,7.9234505E-1,8.1061885E-2,3.2541355E-1,8.2386905E-1,3.114601E-1,-4.5310864E-3,-2.9984058E-3,-1.9760232E-3,-8.9093344E-4,8.0993725E-4,3.7271008E-3,-3.4371992E-3,3.8944518E-3],"split_indices":[59,59,58,59,37,44,0,0,0,0,0,0,0,0,0],"split_type":[0,0,0,0,0,0,0,0,0,0,0,0,0,0,0],"sum_hessian":[9.27E2,6.09E2,3.18E2,3.67E2,2.42E2,2.33E2,8.5E1,1.19E2,2.48E2,7.9E1,1.63E2,2.18E2,1.5E1,2E0,8.3E1],"tree_param":{"num_deleted":"0","num_feature":"60","num_nodes":"15","size_leaf_vector":"0"}},{"base_weights":[-1.0098771E-2,-2.3542868E-2,1.5641036E-2,-3.3705074E-2,-1.3792455E-2,1.0880908E-2,4.0441692E-2,-4.2752057E-2,-2.9584972E-2,-2.0051729E-2,-8.340459E-3,4.0393905E-3,1.734612E-2,4.9678143E-2,1.9046552E-2],"categories":[],"categories_nodes":[],"categories_segments":[],"categories_sizes":[],"default_left":[1,1,1,1,1,1,1,0,0,0,0,0,0,0,0],"id":24,"left_children":[1,3,5,7,9,11,13,-1,-1,-1,-1,-1,-1,-1,-1],"loss_changes":[3.2150123E-1,5.9977412E-2,3.7219286E-2,9.842992E-3,1.0514054E-2,1.1828303E-2,9.132169E-3,0E0,0E0,0E0,0E0,0E0,0E0,0E0,0E0],"parents":[2147483647,0,0,1,1,2,2,3,3,4,4,5,5,6,6],"right_children":[2,4,6,8,10,12,14,-1,-1,-1,-1,-1,-1,-1,-1],"split_conditions":[4.8171952E-1,2.1306944E-1,8.3027637E-1,6.826034E-2,3.2541355E-1,6.155693E-1,6.392427E-1,-4.275206E-3,-2.9584973E-3,-2.005173E-3,-8.3404593E-4,4.0393905E-4,1.7346119E-3,4.9678143E-3,1.9046552E-3],"split_indices":[59,59,57,59,37,59,0,0,0,0,0,0,0,0,0],"split_type":[0,0,0,0,0,0,0,0,0,0,0,0,0,0,0],"sum_hessian":[9.27E2,6.09E2,3.18E2,2.97E2,3.12E2,2.68E2,5E1,9E1,2.07E2,1.44E2,1.68E2,1.31E2,1.37E2,3.4E1,1.6E1],"tree_param":{"num_deleted":"0","num_feature":"60","num_nodes":"15","size_leaf_vector":"0"}},{"base_weights":[-9.090041E-3,-2.37943E-2,1.0124675E-2,-3.361201E-2,-1.7163506E-2,2.3713894E-3,2.483328E-2,-4.3015227E-2,-3.0654898E-2,-2.0080555E-2,-9.615357E-3,2.0177217E-2,-1.2649619E-3,2.1001948E-2,5.754146E-2],"categories":[],"categories_nodes":[],"categories_segments":[],"categories_sizes":[],"default_left":[1,1,1,1,1,1,1,0,0,0,0,0,0,0,0],"id":25,"left_children":[1,3,5,7,9,11,13,-1,-1,-1,-1,-1,-1,-1,-1],"loss_changes":[2.6243633E-1,3.36653E-2,4.5899242E-2,4.54852E-3,6.76471E-3,1.7183809E-2,1.6210422E-2,0E0,0E0,0E0,0E0,0E0,0E0,0E0,0E0],"parents":[2147483647,0,0,1,1,2,2,3,3,4,4,5,5,6,6],"right_children":[2,4,6,8,10,12,14,-1,-1,-1,-1,-1,-1,-1,-1],"split_conditions":[4.0741283E-1,1.3184115E-1,6.701241E-1,2.5053658E-2,3.1505218E-1,3.567098E-1,9.162067E-1,-4.301523E-3,-3.06549E-3,-2.0080556E-3,-9.615357E-4,2.0177218E-3,-1.2649619E-4,2.1001948E-3,5.7541463E-3],"split_indices":[56,59,57,58,43,15,59,0,0,0,0,0,0,0,0],"split_type":[0,0,0,0,0,0,0,0,0,0,0,0,0,0,0],"sum_hessian":[9.27E2,5.25E2,4.02E2,2.1E2,3.15E2,2.64E2,1.38E2,4.7E1,1.63E2,2.26E2,8.9E1,4.4E1,2.2E2,1.25E2,1.3E1],"tree_param":{"num_deleted":"0","num_feature":"60","num_nodes":"15","size_leaf_vector":"0"}},{"base_weights":[-8.181672E-3,-1.9170428E-2,1.28569575E-2,-2.5746943E-2,-9.13204E-3,7.5687333E-3,2.8826643E-2,-3.162237E-2,-2.0815575E-2,-1.0162886E-2,1.1558659E-2,6.1217607E-3,3.4671646E-2,9.440865E-3,3.6143243E-2],"categories":[],"categories_nodes":[],"categories_segments":[],"categories_sizes":[],"default_left":[1,1,1,1,1,1,1,0,0,0,0,0,0,0,0],"id":26,"left_children":[1,3,5,7,9,11,13,-1,-1,-1,-1,-1,-1,-1,-1],"loss_changes":[2.1478926E-1,4.0035605E-2,2.6721776E-2,1.0004163E-2,5.300399E-3,9.239085E-3,1.0863982E-2,0E0,0E0,0E0,0E0,0E0,0E0,0E0,0E0],"parents":[2147483647,0,0,1,1,2,2,3,3,4,4,5,5,6,6],"right_children":[2,4,6,8,10,12,14,-1,-1,-1,-1,-1,-1,-1,-1],"split_conditions":[4.8171952E-1,2.5752002E-1,8.0050194E-1,9.950731E-2,8.334162E-1,8.5464585E-1,5.3282845E-1,-3.162237E-3,-2.0815576E-3,-1.0162886E-3,1.155866E-3,6.121761E-4,3.4671647E-3,9.440865E-4,3.6143244E-3],"split_indices":[59,59,59,49,1,47,1,0,0,0,0,0,0,0,0],"split_type":[0,0,0,0,0,0,0,0,0,0,0,0,0,0,0],"sum_hessian":[9.27E2,6.09E2,3.18E2,3.67E2,2.42E2,2.4E2,7.8E1,1.65E2,2.02E2,2.31E2,1.1E1,2.29E2,1.1E1,2.2E1,5.6E1],"tree_param":{"num_deleted":"0","num_feature":"60","num_nodes":"15","size_leaf_vector":"0"}},{"base_weights":[-7.3597007E-3,-1.83252E-2,9.913884E-3,-2.7435532E-2,-1.2904516E-2,5.4416377E-3,2.633825E-2,-3.5751995E-2,-2.4834156E-2,-1.7096102E-2,-8.323363E-3,2.1463156E-2,2.964786E-3,-3.515579E-2,2.8446835E-2],"categories":[],"categories_nodes":[],"categories_segments":[],"categories_sizes":[],"default_left":[1,1,1,1,1,1,1,0,0,0,0,0,0,0,0],"id":27,"left_children":[1,3,5,7,9,11,13,-1,-1,-1,-1,-1,-1,-1,-1],"loss_changes":[1.759574E-1,2.7696192E-2,2.6373494E-2,3.6769658E-3,6.732121E-3,1.12459995E-2,1.0984313E-2,0E0,0E0,0E0,0E0,0E0,0E0,0E0,0E0],"parents":[2147483647,0,0,1,1,2,2,3,3,4,4,5,5,6,6],"right_children":[2,4,6,8,10,12,14,-1,-1,-1,-1,-1,-1,-1,-1],"split_conditions":[4.4414097E-1,1.3184115E-1,8.022784E-1,2.5053658E-2,2.7245724E-1,3.424997E-1,3.114601E-1,-3.5751995E-3,-2.4834157E-3,-1.7096102E-3,-8.323363E-4,2.1463155E-3,2.964786E-4,-3.5155793E-3,2.8446836E-3],"split_indices":[58,59,58,58,58,14,0,0,0,0,0,0,0,0,0],"split_type":[0,0,0,0,0,0,0,0,0,0,0,0,0,0,0],"sum_hessian":[9.27E2,5.67E2,3.6E2,2.1E2,3.57E2,2.84E2,7.6E1,4.7E1,1.63E2,1.85E2,1.72E2,3.7E1,2.47E2,2E0,7.4E1],"tree_param":{"num_deleted":"0","num_feature":"60","num_nodes":"15","size_leaf_vector":"0"}},{"base_weights":[-6.6310856E-3,-1.6969409E-2,8.389252E-3,-2.4720695E-2,-1.2109141E-2,4.3293964E-3,2.3751626E-2,-3.181641E-2,-2.2199979E-2,-1.3177073E-2,2.501011E-3,-2.078358E-3,9.346568E-3,1.8773803E-2,4.7579505E-2],"categories":[],"categories_nodes":[],"categories_segments":[],"categories_sizes":[],"default_left":[1,1,1,1,1,1,1,0,0,0,0,0,0,0,0],"id":28,"left_children":[1,3,5,7,9,11,13,-1,-1,-1,-1,-1,-1,-1,-1],"loss_changes":[1.4424694E-1,2.0420969E-2,2.3535028E-2,3.0676872E-3,5.3378604E-3,9.696215E-3,8.477017E-3,0E0,0E0,0E0,0E0,0E0,0E0,0E0,0E0],"parents":[2147483647,0,0,1,1,2,2,3,3,4,4,5,5,6,6],"right_children":[2,4,6,8,10,12,14,-1,-1,-1,-1,-1,-1,-1,-1],"split_conditions":[4.324541E-1,1.3184115E-1,8.0050194E-1,2.6019556E-2,4.437927E-1,5.561439E-1,9.173045E-1,-3.1816412E-3,-2.219998E-3,-1.3177072E-3,2.501011E-4,-2.0783581E-4,9.346568E-4,1.8773804E-3,4.7579505E-3],"split_indices":[54,59,59,59,59,58,59,0,0,0,0,0,0,0,0],"split_type":[0,0,0,0,0,0,0,0,0,0,0,0,0,0,0],"sum_hessian":[9.27E2,5.49E2,3.78E2,2.1E2,3.39E2,3E2,7.8E1,5.2E1,1.58E2,3.16E2,2.3E1,1.32E2,1.68E2,6.6E1,1.2E1],"tree_param":{"num_deleted":"0","num_feature":"60","num_nodes":"15","size_leaf_vector":"0"}},{"base_weights":[-5.967013E-3,-1.400964E-2,9.728669E-3,-1.8606173E-2,-5.980052E-3,6.6223387E-3,2.5678648E-2,-2.455775E-2,-1.5638841E-2,-9.969419E-4,-1.0254816E-2,9.34462E-3,-3.0409573E-3,3.208324E-2,2.190118E-3],"categories":[],"categories_nodes":[],"categories_segments":[],"categories_sizes":[],"default_left":[1,1,1,1,1,1,1,0,0,0,0,0,0,0,0],"id":29,"left_children":[1,3,5,7,9,11,13,-1,-1,-1,-1,-1,-1,-1,-1],"loss_changes":[1.17281914E-1,2.2550412E-2,1.54369045E-2,6.503463E-3,4.7826413E-3,6.9995616E-3,7.6018944E-3,0E0,0E0,0E0,0E0,0E0,0E0,0E0,0E0],"parents":[2147483647,0,0,1,1,2,2,3,3,4,4,5,5,6,6],"right_children":[2,4,6,8,10,12,14,-1,-1,-1,-1,-1,-1,-1,-1],"split_conditions":[4.865979E-1,2.6986402E-1,8.3027637E-1,8.425594E-2,4.1209903E-1,7.604874E-1,7.890308E-1,-2.4557752E-3,-1.5638842E-3,-9.9694196E-5,-1.0254816E-3,9.34462E-4,-3.0409574E-4,3.208324E-3,2.190118E-4],"split_indices":[57,59,57,59,25,1,24,0,0,0,0,0,0,0,0],"split_type":[0,0,0,0,0,0,0,0,0,0,0,0,0,0,0],"sum_hessian":[9.27E2,6.13E2,3.14E2,3.89E2,2.24E2,2.64E2,5E1,1.27E2,2.62E2,1.04E2,1.2E2,2.06E2,5.8E1,3.9E1,1.1E1],"tree_param":{"num_deleted":"0","num_feature":"60","num_nodes":"15","size_leaf_vector":"0"}},{"base_weights":[-5.37149E-3,-1.3842986E-2,6.9364095E-3,-1.992566E-2,-9.696491E-3,3.0118338E-4,1.3535128E-2,-2.6811447E-2,-1.7923126E-2,-1.004372E-2,3.1383622E-2,1.7319585E-3,-4.3864578E-2,-1.2905768E-2,1.55500285E-2],"categories":[],"categories_nodes":[],"categories_segments":[],"categories_sizes":[],"default_left":[1,1,1,1,1,1,1,0,0,0,0,0,0,0,0],"id":30,"left_children":[1,3,5,7,9,11,13,-1,-1,-1,-1,-1,-1,-1,-1],"loss_changes":[9.685515E-2,1.3678774E-2,1.6590057E-2,2.5806203E-3,5.008133E-3,1.2082313E-2,1.0323081E-2,0E0,0E0,0E0,0E0,0E0,0E0,0E0,0E0],"parents":[2147483647,0,0,1,1,2,2,3,3,4,4,5,5,6,6],"right_children":[2,4,6,8,10,12,14,-1,-1,-1,-1,-1,-1,-1,-1],"split_conditions":[4.324541E-1,1.3839895E-1,6.1384976E-1,2.5053658E-2,8.163048E-1,7.9460084E-1,3.7960216E-1,-2.6811447E-3,-1.7923126E-3,-1.004372E-3,3.1383622E-3,1.7319585E-4,-4.386458E-3,-1.2905769E-3,1.5550029E-3],"split_indices":[54,59,57,58,24,46,28,0,0,0,0,0,0,0,0],"split_type":[0,0,0,0,0,0,0,0,0,0,0,0,0,0,0],"sum_hessian":[9.27E2,5.49E2,3.78E2,2.21E2,3.28E2,1.89E2,1.89E2,4.7E1,1.74E2,3.26E2,2E0,1.84E2,5E0,1.3E1,1.76E2],"tree_param":{"num_deleted":"0","num_feature":"60","num_nodes":"15","size_leaf_vector":"0"}},{"base_weights":[-4.8411237E-3,-1.359294E-2,4.938446E-3,-1.8842377E-2,-1.04024215E-2,-5.8362255E-4,1.2314099E-2,-2.4626885E-2,-1.6958037E-2,-1.0897398E-2,1.6245136E-2,3.103205E-2,-2.1554253E-3,-1.7853263E-3,1.6136818E-2],"categories":[],"categories_nodes":[],"categories_segments":[],"categories_sizes":[],"default_left":[1,1,1,1,1,1,1,0,0,0,0,0,0,0,0],"id":31,"left_children":[1,3,5,7,9,11,13,-1,-1,-1,-1,-1,-1,-1,-1],"loss_changes":[7.949372E-2,8.010723E-3,1.7887156E-2,1.587972E-3,4.226338E-3,1.2589674E-2,1.0161655E-2,0E0,0E0,0E0,0E0,0E0,0E0,0E0,0E0],"parents":[2147483647,0,0,1,1,2,2,3,3,4,4,5,5,6,6],"right_children":[2,4,6,8,10,12,14,-1,-1,-1,-1,-1,-1,-1,-1],"split_conditions":[3.5941175E-1,1.1095035E-1,6.155693E-1,2.222824E-2,6.565895E-1,3.3718786E-1,3.7461856E-1,-2.4626886E-3,-1.6958037E-3,-1.0897398E-3,1.6245137E-3,3.103205E-3,-2.1554253E-4,-1.7853263E-4,1.6136818E-3],"split_indices":[59,54,59,59,16,52,8,0,0,0,0,0,0,0,0],"split_type":[0,0,0,0,0,0,0,0,0,0,0,0,0,0,0],"sum_hessian":[9.27E2,4.89E2,4.38E2,1.83E2,3.06E2,2.51E2,1.87E2,4.2E1,1.41E2,3.01E2,5E0,1.1E1,2.4E2,4E1,1.47E2],"tree_param":{"num_deleted":"0","num_feature":"60","num_nodes":"15","size_leaf_vector":"0"}},{"base_weights":[-4.35626E-3,-1.037935E-2,7.341557E-3,-1.5194109E-2,-6.1769607E-3,6.026411E-3,3.753101E-2,-2.1534214E-2,-1.3686729E-2,-6.8131196E-3,1.2833189E-2,9.3902685E-3,-2.7509427E-3,4.6309724E-2,-7.1679554E-3],"categories":[],"categories_nodes":[],"categories_segments":[],"categories_sizes":[],"default_left":[1,1,1,1,1,1,1,0,0,0,0,0,0,0,0],"id":32,"left_children":[1,3,5,7,9,11,13,-1,-1,-1,-1,-1,-1,-1,-1],"loss_changes":[6.54603E-2,1.2309276E-2,1.2320144E-2,2.429001E-3,4.066187E-3,9.001664E-3,5.4331403E-3,0E0,0E0,0E0,0E0,0E0,0E0,0E0,0E0],"parents":[2147483647,0,0,1,1,2,2,3,3,4,4,5,5,6,6],"right_children":[2,4,6,8,10,12,14,-1,-1,-1,-1,-1,-1,-1,-1],"split_conditions":[4.8524714E-1,2.0002767E-1,9.173045E-1,2.6019556E-2,8.334162E-1,6.618134E-1,6.288401E-1,-2.1534215E-3,-1.3686729E-3,-6.81312E-4,1.283319E-3,9.390269E-4,-2.7509427E-4,4.6309726E-3,-7.1679556E-4],"split_indices":[54,58,59,59,1,0,17,0,0,0,0,0,0,0,0],"split_type":[0,0,0,0,0,0,0,0,0,0,0,0,0,0,0],"sum_hessian":[9.27E2,6.12E2,3.15E2,2.84E2,3.28E2,3.03E2,1.2E1,5.2E1,2.32E2,3.18E2,1E1,2.19E2,8.4E1,1E1,2E0],"tree_param":{"num_deleted":"0","num_feature":"60","num_nodes":"15","size_leaf_vector":"0"}},{"base_weights":[-3.918845E-3,-8.534884E-3,8.77245E-3,-1.2431045E-2,-3.1750845E-3,7.3412736E-3,3.4078993E-2,-1.5876949E-2,-9.956419E-3,-2.5078112E-3,-4.0441193E-2,8.030219E-3,-3.4625128E-2,5.494077E-2,1.4172785E-2],"categories":[],"categories_nodes":[],"categories_segments":[],"categories_sizes":[],"default_left":[1,1,1,1,1,1,1,0,0,0,0,0,0,0,0],"id":33,"left_children":[1,3,5,7,9,11,13,-1,-1,-1,-1,-1,-1,-1,-1],"loss_changes":[5.4440364E-2,1.4181614E-2,8.731909E-3,3.2016896E-3,7.060184E-3,7.101413E-3,4.6199616E-3,0E0,0E0,0E0,0E0,0E0,0E0,0E0,0E0],"parents":[2147483647,0,0,1,1,2,2,3,3,4,4,5,5,6,6],"right_children":[2,4,6,8,10,12,14,-1,-1,-1,-1,-1,-1,-1,-1],"split_conditions":[5.561439E-1,2.721117E-1,9.173045E-1,9.792608E-2,7.964337E-1,9.5506644E-1,5.8828306E-1,-1.5876949E-3,-9.956419E-4,-2.5078113E-4,-4.0441193E-3,8.030219E-4,-3.4625127E-3,5.494077E-3,1.4172785E-3],"split_indices":[58,58,59,49,46,35,18,0,0,0,0,0,0,0,0],"split_type":[0,0,0,0,0,0,0,0,0,0,0,0,0,0,0],"sum_hessian":[9.27E2,6.8E2,2.47E2,3.93E2,2.87E2,2.35E2,1.2E1,1.62E2,2.31E2,2.83E2,4E0,2.32E2,3E0,5E0,7E0],"tree_param":{"num_deleted":"0","num_feature":"60","num_nodes":"15","size_leaf_vector":"0"}},{"base_weights":[-3.529785E-3,-8.954238E-3,5.4128477E-3,-1.3509527E-2,-6.318043E-3,4.366848E-3,3.0279636E-2,-3.153796E-3,-1.4343054E-2,-6.8599987E-3,1.1894524E-2,7.566222E-3,-2.1565869E-3,3.7234977E-2,-7.6349378E-3],"categories":[],"categories_nodes":[],"categories_segments":[],"categories_sizes":[],"default_left":[1,1,1,1,1,1,1,0,0,0,0,0,0,0,0],"id":34,"left_children":[1,3,5,7,9,11,13,-1,-1,-1,-1,-1,-1,-1,-1],"loss_changes":[4.506472E-2,6.8556406E-3,8.997513E-3,1.7760694E-3,3.7139067E-3,7.0706825E-3,3.976209E-3,0E0,0E0,0E0,0E0,0E0,0E0,0E0,0E0],"parents":[2147483647,0,0,1,1,2,2,3,3,4,4,5,5,6,6],"right_children":[2,4,6,8,10,12,14,-1,-1,-1,-1,-1,-1,-1,-1],"split_conditions":[4.5381156E-1,1.3184115E-1,9.162067E-1,2.2046383E-2,8.334162E-1,6.391157E-1,6.288401E-1,-3.153796E-4,-1.4343054E-3,-6.8599987E-4,1.1894525E-3,7.5662223E-4,-2.1565869E-4,3.7234977E-3,-7.6349376E-4],"split_indices":[51,59,59,0,1,1,17,0,0,0,0,0,0,0,0],"split_type":[0,0,0,0,0,0,0,0,0,0,0,0,0,0,0],"sum_hessian":[9.27E2,5.77E2,3.5E2,2.1E2,3.67E2,3.37E2,1.3E1,1.6E1,1.94E2,3.57E2,1E1,2.26E2,1.11E2,1.1E1,2E0],"tree_param":{"num_deleted":"0","num_feature":"60","num_nodes":"15","size_leaf_vector":"0"}},{"base_weights":[-3.1743795E-3,-7.0083034E-3,7.3662526E-3,-9.70816E-3,-1.8763363E-3,9.074172E-3,-8.9524165E-3,-1.2733639E-2,-7.28525E-3,1.5628383E-2,-4.501433E-3,6.4542065E-3,2.5888806E-2,-2.1217283E-2,1.3846504E-2],"categories":[],"categories_nodes":[],"categories_segments":[],"categories_sizes":[],"default_left":[1,1,1,1,1,1,1,0,0,0,0,0,0,0,0],"id":35,"left_children":[1,3,5,7,9,11,13,-1,-1,-1,-1,-1,-1,-1,-1],"loss_changes":[3.7553944E-2,9.417433E-3,6.993235E-3,3.1766184E-3,1.0914924E-2,9.745004E-3,7.0048026E-3,0E0,0E0,0E0,0E0,0E0,0E0,0E0,0E0],"parents":[2147483647,0,0,1,1,2,2,3,3,4,4,5,5,6,6],"right_children":[2,4,6,8,10,12,14,-1,-1,-1,-1,-1,-1,-1,-1],"split_conditions":[5.561439E-1,3.1408268E-1,8.8353634E-1,1.151506E-1,3.6426857E-1,8.532287E-1,9.357532E-1,-1.273364E-3,-7.28525E-4,1.5628383E-3,-4.5014333E-4,6.454207E-4,2.5888807E-3,-2.1217284E-3,1.3846504E-3],"split_indices":[58,43,28,9,44,38,29,0,0,0,0,0,0,0,0],"split_type":[0,0,0,0,0,0,0,0,0,0,0,0,0,0,0],"sum_hessian":[9.27E2,6.8E2,2.47E2,4.45E2,2.35E2,2.24E2,2.3E1,1.96E2,2.49E2,3E1,2.05E2,1.95E2,2.9E1,1.5E1,8E0],"tree_param":{"num_deleted":"0","num_feature":"60","num_nodes":"15","size_leaf_vector":"0"}},{"base_weights":[-2.8552068E-3,-6.661885E-3,5.8002947E-3,-8.839438E-3,-1.9111984E-3,8.185716E-3,-5.2583134E-3,-8.585467E-3,-3.4502827E-2,1.648626E-2,-4.810733E-3,5.130318E-3,2.664041E-2,-3.3229284E-2,7.183621E-4],"categories":[],"categories_nodes":[],"categories_segments":[],"categories_sizes":[],"default_left":[1,1,1,1,1,1,1,0,0,0,0,0,0,0,0],"id":36,"left_children":[1,3,5,7,9,11,13,-1,-1,-1,-1,-1,-1,-1,-1],"loss_changes":[3.0615043E-2,6.655548E-3,7.5348075E-3,2.5846213E-3,1.09615E-2,1.3057755E-2,8.549715E-3,0E0,0E0,0E0,0E0,0E0,0E0,0E0,0E0],"parents":[2147483647,0,0,1,1,2,2,3,3,4,4,5,5,6,6],"right_children":[2,4,6,8,10,12,14,-1,-1,-1,-1,-1,-1,-1,-1],"split_conditions":[5.1626086E-1,3.2541355E-1,8.300239E-1,4.4190112E-1,4.0544868E-1,8.0137944E-1,7.8997743E-1,-8.585467E-4,-3.4502826E-3,1.6486259E-3,-4.8107328E-4,5.130318E-4,2.664041E-3,-3.3229284E-3,7.183621E-5],"split_indices":[59,37,28,53,1,34,33,0,0,0,0,0,0,0,0],"split_type":[0,0,0,0,0,0,0,0,0,0,0,0,0,0,0],"sum_hessian":[9.27E2,6.44E2,2.83E2,4.41E2,2.03E2,2.33E2,5E1,4.38E2,3E0,2.7E1,1.76E2,2.01E2,3.2E1,8E0,4.2E1],"tree_param":{"num_deleted":"0","num_feature":"60","num_nodes":"15","size_leaf_vector":"0"}},{"base_weights":[-2.5731486E-3,-6.66411E-3,4.1708644E-3,-1.1020899E-2,-4.8968187E-3,6.7168307E-3,-2.7605477E-3,-3.7306624E-3,-1.2167365E-2,-4.587857E-3,-3.5341196E-2,1.7198006E-3,1.5079352E-2,2.8265268E-3,-1.9406749E-2],"categories":[],"categories_nodes":[],"categories_segments":[],"categories_sizes":[],"default_left":[1,1,1,1,1,1,1,0,0,0,0,0,0,0,0],"id":37,"left_children":[1,3,5,7,9,11,13,-1,-1,-1,-1,-1,-1,-1,-1],"loss_changes":[2.5630847E-2,4.3964647E-3,6.212688E-3,1.3420377E-3,3.7225997E-3,1.0713524E-2,8.890192E-3,0E0,0E0,0E0,0E0,0E0,0E0,0E0,0E0],"parents":[2147483647,0,0,1,1,2,2,3,3,4,4,5,5,6,6],"right_children":[2,4,6,8,10,12,14,-1,-1,-1,-1,-1,-1,-1,-1],"split_conditions":[4.5381156E-1,9.950731E-2,6.651391E-1,5.8319293E-2,8.085288E-1,6.926429E-1,7.8748375E-1,-3.7306626E-4,-1.2167365E-3,-4.587857E-4,-3.5341196E-3,1.7198006E-4,1.5079352E-3,2.8265268E-4,-1.940675E-3],"split_indices":[51,49,0,1,33,51,50,0,0,0,0,0,0,0,0],"split_type":[0,0,0,0,0,0,0,0,0,0,0,0,0,0,0],"sum_hessian":[9.27E2,5.77E2,3.5E2,1.65E2,4.12E2,2.56E2,9.4E1,2.3E1,1.42E2,4.09E2,3E0,1.61E2,9.5E1,7.1E1,2.3E1],"tree_param":{"num_deleted":"0","num_feature":"60","num_nodes":"15","size_leaf_vector":"0"}},{"base_weights":[-2.321825E-3,-6.8834233E-3,2.6447715E-3,-1.3817259E-2,-6.1060605E-3,1.2611317E-3,1.330934E-2,-1.0388021E-2,-1.6319383E-2,-5.7553644E-3,-1.8046932E-2,1.3078744E-2,-3.3396544E-4,9.897379E-3,4.27199E-2],"categories":[],"categories_nodes":[],"categories_segments":[],"categories_sizes":[],"default_left":[1,1,1,1,1,1,1,0,0,0,0,0,0,0,0],"id":38,"left_children":[1,3,5,7,9,11,13,-1,-1,-1,-1,-1,-1,-1,-1],"loss_changes":[2.104262E-2,2.524441E-3,6.5496005E-3,2.4233293E-4,1.7261207E-3,7.4502113E-3,4.6949163E-3,0E0,0E0,0E0,0E0,0E0,0E0,0E0,0E0],"parents":[2147483647,0,0,1,1,2,2,3,3,4,4,5,5,6,6],"right_children":[2,4,6,8,10,12,14,-1,-1,-1,-1,-1,-1,-1,-1],"split_conditions":[3.5471058E-1,2.5053658E-2,8.3027637E-1,2.5805717E-2,4.0218407E-1,3.336014E-1,9.1229606E-1,-1.0388022E-3,-1.6319383E-3,-5.7553645E-4,-1.8046933E-3,1.3078743E-3,-3.3396544E-5,9.897379E-4,4.27199E-3],"split_indices":[57,58,57,41,51,15,40,0,0,0,0,0,0,0,0],"split_type":[0,0,0,0,0,0,0,0,0,0,0,0,0,0,0],"sum_hessian":[9.27E2,4.83E2,4.44E2,4.7E1,4.36E2,3.94E2,5E1,2.2E1,2.5E1,4.25E2,1.1E1,4.6E1,3.48E2,4.6E1,4E0],"tree_param":{"num_deleted":"0","num_feature":"60","num_nodes":"15","size_leaf_vector":"0"}},{"base_weights":[-2.088042E-3,-4.400214E-3,6.191393E-3,-4.061326E-3,-2.8258488E-2,1.1974949E-2,-2.4889156E-3,-6.5766284E-3,1.0251669E-4,-4.0861353E-2,1.476865E-2,-9.753986E-3,1.658942E-2,-4.65016E-2,-2.2891993E-4],"categories":[],"categories_nodes":[],"categories_segments":[],"categories_sizes":[],"default_left":[1,1,1,1,1,1,1,0,0,0,0,0,0,0,0],"id":39,"left_children":[1,3,5,7,9,11,13,-1,-1,-1,-1,-1,-1,-1,-1],"loss_changes":[1.7792393E-2,5.7551535E-3,1.0221023E-2,7.5100474E-3,6.026119E-3,1.2394454E-2,8.145769E-3,0E0,0E0,0E0,0E0,0E0,0E0,0E0,0E0],"parents":[2147483647,0,0,1,1,2,2,3,3,4,4,5,5,6,6],"right_children":[2,4,6,8,10,12,14,-1,-1,-1,-1,-1,-1,-1,-1],"split_conditions":[6.046982E-1,6.473743E-1,7.75897E-1,3.1408268E-1,6.0592395E-1,3.284135E-1,7.810931E-1,-6.5766287E-4,1.025167E-5,-4.0861354E-3,1.476865E-3,-9.7539864E-4,1.658942E-3,-4.65016E-3,-2.2891994E-5],"split_indices":[48,45,25,43,52,3,25,0,0,0,0,0,0,0,0],"split_type":[0,0,0,0,0,0,0,0,0,0,0,0,0,0,0],"sum_hessian":[9.27E2,7.25E2,2.02E2,7.16E2,9E0,1.21E2,8.1E1,4.46E2,2.7E2,7E0,2E0,2.1E1,1E2,3E0,7.8E1],"tree_param":{"num_deleted":"0","num_feature":"60","num_nodes":"15","size_leaf_vector":"0"}},{"base_weights":[-1.8870432E-3,-4.3140175E-3,4.784959E-3,-4.087761E-3,-3.4086354E-2,-4.3879827E-3,7.3006195E-3,-4.712431E-3,9.081581E-3,-1.0282159E-2,-4.652843E-2,5.6154598E-3,-1.8115032E-2,1.2107331E-2,-1.4557558E-3],"categories":[],"categories_nodes":[],"categories_segments":[],"categories_sizes":[],"default_left":[1,1,1,1,1,1,1,0,0,0,0,0,0,0,0],"id":40,"left_children":[1,3,5,7,9,11,13,-1,-1,-1,-1,-1,-1,-1,-1],"loss_changes":[1.5047539E-2,4.448006E-3,5.7548853E-3,5.6121377E-3,1.0024551E-3,7.5168842E-3,8.225054E-3,0E0,0E0,0E0,0E0,0E0,0E0,0E0,0E0],"parents":[2147483647,0,0,1,1,2,2,3,3,4,4,5,5,6,6],"right_children":[2,4,6,8,10,12,14,-1,-1,-1,-1,-1,-1,-1,-1],"split_conditions":[5.561439E-1,7.964337E-1,3.5702085E-1,5.927986E-1,7.230166E-1,6.4667E-1,7.739536E-1,-4.7124314E-4,9.081581E-4,-1.0282159E-3,-4.652843E-3,5.61546E-4,-1.8115033E-3,1.2107332E-3,-1.4557558E-4],"split_indices":[58,46,8,44,2,55,18,0,0,0,0,0,0,0,0],"split_type":[0,0,0,0,0,0,0,0,0,0,0,0,0,0,0],"sum_hessian":[9.27E2,6.8E2,2.47E2,6.76E2,4E0,5.3E1,1.94E2,6.46E2,3E1,2E0,2E0,3.1E1,2.2E1,1.25E2,6.9E1],"tree_param":{"num_deleted":"0","num_feature":"60","num_nodes":"15","size_leaf_vector":"0"}},{"base_weights":[-1.7041941E-3,-4.2821127E-3,3.5498824E-3,-4.6220436E-3,1.9422289E-2,7.589509E-3,-2.4404523E-3,-3.964542E-3,-2.2164486E-2,3.526746E-2,-9.201042E-3,1.9444609E-3,1.912945E-2,2.507901E-3,-1.5612797E-2],"categories":[],"categories_nodes":[],"categories_segments":[],"categories_sizes":[],"default_left":[1,1,1,1,1,1,1,0,0,0,0,0,0,0,0],"id":41,"left_children":[1,3,5,7,9,11,13,-1,-1,-1,-1,-1,-1,-1,-1],"loss_changes":[1.2584573E-2,5.109817E-3,7.4233282E-3,7.0056487E-3,4.4063726E-3,1.1884067E-2,8.121652E-3,0E0,0E0,0E0,0E0,0E0,0E0,0E0,0E0],"parents":[2147483647,0,0,1,1,2,2,3,3,4,4,5,5,6,6],"right_children":[2,4,6,8,10,12,14,-1,-1,-1,-1,-1,-1,-1,-1],"split_conditions":[4.9720106E-1,5.9377694E-1,6.397836E-1,5.433719E-1,8.9605343E-1,5.6279767E-1,7.8748375E-1,-3.964542E-4,-2.2164488E-3,3.526746E-3,-9.2010427E-4,1.944461E-4,1.912945E-3,2.5079012E-4,-1.5612798E-3],"split_indices":[39,30,0,24,2,4,50,0,0,0,0,0,0,0,0],"split_type":[0,0,0,0,0,0,0,0,0,0,0,0,0,0,0],"sum_hessian":[9.27E2,6.22E2,3.05E2,6.14E2,8E0,1.82E2,1.23E2,5.93E2,2.1E1,5E0,3E0,1.23E2,5.9E1,9E1,3.3E1],"tree_param":{"num_deleted":"0","num_feature":"60","num_nodes":"15","size_leaf_vector":"0"}},{"base_weights":[-1.5329223E-3,-5.227189E-3,1.6812754E-3,-4.9413396E-3,-4.4456612E-2,5.9665844E-2,1.444077E-3,-4.601177E-3,-2.8212616E-2,-1.0369763E-3,5.514297E-3],"categories":[],"categories_nodes":[],"categories_segments":[],"categories_sizes":[],"default_left":[1,1,1,1,0,0,1,0,0,0,0],"id":42,"left_children":[1,3,5,7,-1,-1,9,-1,-1,-1,-1],"loss_changes":[1.1027956E-2,4.6246545E-3,6.7495E-3,3.2740738E-3,0E0,0E0,5.014541E-3,0E0,0E0,0E0,0E0],"parents":[2147483647,0,0,1,1,2,2,3,3,6,6],"right_children":[2,4,6,8,-1,-1,10,-1,-1,-1,-1],"split_conditions":[2.9111478E-1,4.7452784E-1,4.5691587E-2,4.7582036E-1,-4.4456613E-3,5.9665847E-3,6.1384976E-1,-4.6011768E-4,-2.8212618E-3,-1.0369764E-4,5.5142975E-4],"split_indices":[33,47,1,6,0,0,57,0,0,0,0],"split_type":[0,0,0,0,0,0,0,0,0,0,0],"sum_hessian":[9.27E2,4.31E2,4.96E2,4.29E2,2E0,1E0,4.95E2,4.24E2,5E0,3.08E2,1.87E2],"tree_param":{"num_deleted":"0","num_feature":"60","num_nodes":"11","size_leaf_vector":"0"}},{"base_weights":[-1.3810343E-3,-3.0317265E-3,4.52923E-3,-2.697031E-3,-2.6726216E-2,9.392508E-3,-2.7616145E-3,-6.2896665E-3,-8.419676E-4,-3.820032E-2,1.278013E-2,-8.464166E-3,1.3189086E-2,-4.2087823E-2,-7.354568E-4],"categories":[],"categories_nodes":[],"categories_segments":[],"categories_sizes":[],"default_left":[1,1,1,1,1,1,1,0,0,0,0,0,0,0,0],"id":43,"left_children":[1,3,5,7,9,11,13,-1,-1,-1,-1,-1,-1,-1,-1],"loss_changes":[9.067323E-3,5.6854156E-3,7.2237914E-3,4.773199E-3,5.0212033E-3,8.382533E-3,6.502896E-3,0E0,0E0,0E0,0E0,0E0,0E0,0E0,0E0],"parents":[2147483647,0,0,1,1,2,2,3,3,4,4,5,5,6,6],"right_children":[2,4,6,8,10,12,14,-1,-1,-1,-1,-1,-1,-1,-1],"split_conditions":[6.046982E-1,6.473743E-1,7.75897E-1,1.4126098E-1,6.0592395E-1,3.284135E-1,7.810931E-1,-6.2896666E-4,-8.419676E-5,-3.8200319E-3,1.278013E-3,-8.4641663E-4,1.3189086E-3,-4.208782E-3,-7.3545685E-5],"split_indices":[48,45,25,19,52,3,25,0,0,0,0,0,0,0,0],"split_type":[0,0,0,0,0,0,0,0,0,0,0,0,0,0,0],"sum_hessian":[9.27E2,7.25E2,2.02E2,7.16E2,9E0,1.21E2,8.1E1,2.43E2,4.73E2,7E0,2E0,2.1E1,1E2,3E0,7.8E1],"tree_param":{"num_deleted":"0","num_feature":"60","num_nodes":"15","size_leaf_vector":"0"}},{"base_weights":[-1.2505444E-3,-4.4029024E-3,1.3757785E-3,-9.931196E-3,-3.68354E-3,3.2260446E-3,-3.049362E-3,-6.893611E-3,-1.2236321E-2,-3.2924E-3,-1.6327413E-2,8.962723E-4,1.3148658E-2,-1.4306742E-2,1.9114843E-3],"categories":[],"categories_nodes":[],"categories_segments":[],"categories_sizes":[],"default_left":[1,1,1,1,1,1,1,0,0,0,0,0,0,0,0],"id":44,"left_children":[1,3,5,7,9,11,13,-1,-1,-1,-1,-1,-1,-1,-1],"loss_changes":[7.689072E-3,1.6416479E-3,4.1609947E-3,2.517444E-4,1.800816E-3,8.264254E-3,8.404267E-3,0E0,0E0,0E0,0E0,0E0,0E0,0E0,0E0],"parents":[2147483647,0,0,1,1,2,2,3,3,4,4,5,5,6,6],"right_children":[2,4,6,8,10,12,14,-1,-1,-1,-1,-1,-1,-1,-1],"split_conditions":[2.8207093E-1,2.5053658E-2,6.537479E-1,2.5805717E-2,3.055962E-1,6.181835E-1,7.582924E-1,-6.893611E-4,-1.2236321E-3,-3.2924E-4,-1.6327413E-3,8.962723E-5,1.3148658E-3,-1.4306742E-3,1.9114843E-4],"split_indices":[56,58,4,41,47,20,5,0,0,0,0,0,0,0,0],"split_type":[0,0,0,0,0,0,0,0,0,0,0,0,0,0,0],"sum_hessian":[9.27E2,4.21E2,5.06E2,4.7E1,3.74E2,3.57E2,1.49E2,2.2E1,2.5E1,3.64E2,1E1,2.9E2,6.7E1,4.5E1,1.04E2],"tree_param":{"num_deleted":"0","num_feature":"60","num_nodes":"15","size_leaf_vector":"0"}},{"base_weights":[-1.1294911E-3,-3.9607454E-3,1.3337509E-3,-3.543338E-3,-2.879714E-2,1.0775762E-2,-6.1692524E-5,-3.313723E-3,-3.4814503E-2,-3.2927155E-2,-2.0085275E-3,-1.4584261E-3,1.6784515E-2,-4.48214E-2,2.4928158E-4],"categories":[],"categories_nodes":[],"categories_segments":[],"categories_sizes":[],"default_left":[1,1,1,1,1,1,1,0,0,0,0,0,0,0,0],"id":45,"left_children":[1,3,5,7,9,11,13,-1,-1,-1,-1,-1,-1,-1,-1],"loss_changes":[6.4772144E-3,4.37646E-3,6.5490333E-3,2.9434566E-3,7.083267E-4,4.729261E-3,6.052067E-3,0E0,0E0,0E0,0E0,0E0,0E0,0E0,0E0],"parents":[2147483647,0,0,1,1,2,2,3,3,4,4,5,5,6,6],"right_children":[2,4,6,8,10,12,14,-1,-1,-1,-1,-1,-1,-1,-1],"split_conditions":[2.9111478E-1,4.4190112E-1,3.566524E-1,4.8650068E-1,4.3366313E-1,3.147254E-1,3.5708648E-1,-3.313723E-4,-3.4814503E-3,-3.2927156E-3,-2.0085275E-4,-1.4584261E-4,1.6784515E-3,-4.4821403E-3,2.4928158E-5],"split_indices":[33,53,15,6,0,23,15,0,0,0,0,0,0,0,0],"split_type":[0,0,0,0,0,0,0,0,0,0,0,0,0,0,0],"sum_hessian":[9.27E2,4.31E2,4.96E2,4.25E2,6E0,6.3E1,4.33E2,4.23E2,2E0,5E0,1E0,2.1E1,4.2E1,2E0,4.31E2],"tree_param":{"num_deleted":"0","num_feature":"60","num_nodes":"15","size_leaf_vector":"0"}},{"base_weights":[-1.027561E-3,-2.0419483E-3,5.2711777E-3,-1.770676E-3,-2.867657E-2,7.666833E-3,-2.40038E-2,-2.0570091E-3,1.8772008E-2,-3.43029E-2,-7.865052E-3,8.895117E-3,-3.0177176E-2,-5.1875405E-2,-4.6480554E-3],"categories":[],"categories_nodes":[],"categories_segments":[],"categories_sizes":[],"default_left":[1,1,1,1,1,1,1,0,0,0,0,0,0,0,0],"id":46,"left_children":[1,3,5,7,9,11,13,-1,-1,-1,-1,-1,-1,-1,-1],"loss_changes":[5.94009E-3,5.7294103E-3,9.2311585E-3,4.703081E-3,6.669457E-4,5.8464115E-3,5.1536374E-3,0E0,0E0,0E0,0E0,0E0,0E0,0E0,0E0],"parents":[2147483647,0,0,1,1,2,2,3,3,4,4,5,5,6,6],"right_children":[2,4,6,8,10,12,14,-1,-1,-1,-1,-1,-1,-1,-1],"split_conditions":[6.905271E-1,7.742865E-1,8.0407506E-1,9.173045E-1,6.623174E-1,9.0549994E-1,7.8214407E-1,-2.0570091E-4,1.8772008E-3,-3.4302901E-3,-7.865052E-4,8.895117E-4,-3.0177177E-3,-5.187541E-3,-4.6480555E-4],"split_indices":[51,56,0,19,51,15,2,0,0,0,0,0,0,0,0],"split_type":[0,0,0,0,0,0,0,0,0,0,0,0,0,0,0],"sum_hessian":[9.27E2,7.99E2,1.28E2,7.92E2,7E0,1.19E2,9E0,7.82E2,1E1,5E0,2E0,1.16E2,3E0,3E0,6E0],"tree_param":{"num_deleted":"0","num_feature":"60","num_nodes":"15","size_leaf_vector":"0"}},{"base_weights":[-9.359384E-4,-3.668711E-3,1.0431289E-3,-3.367349E-3,-1.763783E-2,6.661068E-4,1.6246783E-2,-5.476032E-3,-1.410524E-3,-2.7206665E-2,-1.2673289E-3,5.507369E-3,-6.835572E-4,4.1936144E-2,4.3463586E-3],"categories":[],"categories_nodes":[],"categories_segments":[],"categories_sizes":[],"default_left":[1,1,1,1,1,1,1,0,0,0,0,0,0,0,0],"id":47,"left_children":[1,3,5,7,9,11,13,-1,-1,-1,-1,-1,-1,-1,-1],"loss_changes":[5.0227675E-3,1.5824148E-3,3.0787864E-3,1.5726574E-3,1.2186933E-3,3.4472232E-3,3.7920163E-3,0E0,0E0,0E0,0E0,0E0,0E0,0E0,0E0],"parents":[2147483647,0,0,1,1,2,2,3,3,4,4,5,5,6,6],"right_children":[2,4,6,8,10,12,14,-1,-1,-1,-1,-1,-1,-1,-1],"split_conditions":[2.6986402E-1,2.8297055E-1,9.173045E-1,1.1095035E-1,4.8224625E-1,3.566524E-1,5.6491005E-1,-5.476032E-4,-1.410524E-4,-2.7206666E-3,-1.2673289E-4,5.507369E-4,-6.835572E-5,4.1936147E-3,4.3463588E-4],"split_indices":[59,54,59,54,2,15,20,0,0,0,0,0,0,0,0],"split_type":[0,0,0,0,0,0,0,0,0,0,0,0,0,0,0],"sum_hessian":[9.27E2,3.89E2,5.38E2,3.82E2,7E0,5.26E2,1.2E1,1.83E2,1.99E2,4E0,3E0,1.14E2,4.12E2,3E0,9E0],"tree_param":{"num_deleted":"0","num_feature":"60","num_nodes":"15","size_leaf_vector":"0"}},{"base_weights":[-8.4064394E-4,-1.5546522E-3,6.1680735E-3,-1.3019004E-3,-2.2478694E-2,1.8136032E-2,6.7969115E-4,-2.0903386E-3,3.6457295E-3,-4.2127747E-2,5.5959104E-3,2.4578376E-2,-8.508573E-3,8.585028E-3,-1.0731182E-2],"categories":[],"categories_nodes":[],"categories_segments":[],"categories_sizes":[],"default_left":[1,1,1,1,1,1,1,0,0,0,0,0,0,0,0],"id":48,"left_children":[1,3,5,7,9,11,13,-1,-1,-1,-1,-1,-1,-1,-1],"loss_changes":[4.6535637E-3,4.429017E-3,5.636559E-3,3.260972E-3,5.752137E-3,4.843779E-3,5.5045355E-3,0E0,0E0,0E0,0E0,0E0,0E0,0E0,0E0],"parents":[2147483647,0,0,1,1,2,2,3,3,4,4,5,5,6,6],"right_children":[2,4,6,8,10,12,14,-1,-1,-1,-1,-1,-1,-1,-1],"split_conditions":[7.9234505E-1,8.4235805E-1,7.4025536E-1,6.055693E-1,7.9414195E-1,8.8548636E-1,7.5655913E-1,-2.0903387E-4,3.6457294E-4,-4.212775E-3,5.5959105E-4,2.4578376E-3,-8.5085735E-4,8.5850287E-4,-1.0731182E-3],"split_indices":[36,28,16,53,47,32,58,0,0,0,0,0,0,0,0],"split_type":[0,0,0,0,0,0,0,0,0,0,0,0,0,0,0],"sum_hessian":[9.27E2,8.42E2,8.5E1,8.33E2,9E0,2.6E1,5.9E1,7.19E2,1.14E2,5E0,4E0,2.1E1,5E0,3.5E1,2.4E1],"tree_param":{"num_deleted":"0","num_feature":"60","num_nodes":"15","size_leaf_vector":"0"}},{"base_weights":[-7.5885165E-4,-1.4043372E-3,6.1008497E-3,-1.2240086E-3,-2.653651E-2,1.53338425E-2,-1.8019135E-3,-9.4584096E-4,-1.3936266E-2,-3.550201E-2,-5.7370067E-3,-5.563456E-3,2.5587084E-2,-2.6464174E-2,2.0384835E-3],"categories":[],"categories_nodes":[],"categories_segments":[],"categories_sizes":[],"default_left":[1,1,1,1,1,1,1,0,0,0,0,0,0,0,0],"id":49,"left_children":[1,3,5,7,9,11,13,-1,-1,-1,-1,-1,-1,-1,-1],"loss_changes":[4.1176016E-3,3.8152297E-3,5.864922E-3,2.9713197E-3,9.1519207E-4,8.070161E-3,4.2213127E-3,0E0,0E0,0E0,0E0,0E0,0E0,0E0,0E0],"parents":[2147483647,0,0,1,1,2,2,3,3,4,4,5,5,6,6],"right_children":[2,4,6,8,10,12,14,-1,-1,-1,-1,-1,-1,-1,-1],"split_conditions":[7.9999626E-1,9.136899E-1,8.300239E-1,8.022784E-1,8.5564137E-1,7.7537125E-1,7.3656505E-1,-9.4584095E-5,-1.3936267E-3,-3.550201E-3,-5.737007E-4,-5.563456E-4,2.5587084E-3,-2.6464174E-3,2.0384835E-4],"split_indices":[35,26,31,31,0,32,47,0,0,0,0,0,0,0,0],"split_type":[0,0,0,0,0,0,0,0,0,0,0,0,0,0,0],"sum_hessian":[9.27E2,8.48E2,7.9E1,8.43E2,5E0,3.6E1,4.3E1,8.26E2,1.7E1,3E0,2E0,1.2E1,2.4E1,5E0,3.8E1],"tree_param":{"num_deleted":"0","num_feature":"60","num_nodes":"15","size_leaf_vector":"0"}},{"base_weights":[-6.894851E-4,-4.041183E-3,5.0541083E-4,-3.6499444E-3,-2.6603006E-2,2.1782665E-2,6.138262E-5,8.3079323E-4,-5.0107664E-3,3.5203964E-2,3.3322317E-3,-2.317441E-4,1.4938478E-2],"categories":[],"categories_nodes":[],"categories_segments":[],"categories_sizes":[],"default_left":[1,1,1,1,0,1,1,0,0,0,0,0,0],"id":50,"left_children":[1,3,5,7,-1,9,11,-1,-1,-1,-1,-1,-1],"loss_changes":[3.7186176E-3,2.0567016E-3,6.470339E-3,1.4736573E-3,0E0,3.3494937E-3,2.9339693E-3,0E0,0E0,0E0,0E0,0E0,0E0],"parents":[2147483647,0,0,1,1,2,2,3,3,5,5,6,6],"right_children":[2,4,6,8,-1,10,12,-1,-1,-1,-1,-1,-1],"split_conditions":[1.4126098E-1,4.4190112E-1,6.633763E-2,2.6577974E-2,-2.6603006E-3,3.967923E-1,9.173045E-1,8.307932E-5,-5.0107663E-4,3.5203963E-3,3.3322317E-4,-2.317441E-5,1.4938478E-3],"split_indices":[19,53,0,7,0,37,19,0,0,0,0,0,0],"split_type":[0,0,0,0,0,0,0,0,0,0,0,0,0],"sum_hessian":[9.27E2,2.43E2,6.84E2,2.4E2,3E0,1.3E1,6.71E2,5.6E1,1.84E2,7E0,6E0,6.59E2,1.2E1],"tree_param":{"num_deleted":"0","num_feature":"60","num_nodes":"13","size_leaf_vector":"0"}},{"base_weights":[-6.1811035E-4,-1.3901512E-3,4.1745314E-3,-1.1394126E-3,-2.6070848E-2,1.8023392E-2,5.0371856E-4,-1.4367375E-3,1.10482825E-2,-3.103128E-2,-7.4597E-3,9.619483E-3,2.6333796E-2,7.0141084E-3,-1.08170565E-2],"categories":[],"categories_nodes":[],"categories_segments":[],"categories_sizes":[],"default_left":[1,1,1,1,1,1,1,0,0,0,0,0,0,0,0],"id":51,"left_children":[1,3,5,7,9,11,13,-1,-1,-1,-1,-1,-1,-1,-1],"loss_changes":[3.4395107E-3,4.9210177E-3,6.5488396E-3,2.8894711E-3,5.070707E-4,1.6323607E-3,7.667246E-3,0E0,0E0,0E0,0E0,0E0,0E0,0E0,0E0],"parents":[2147483647,0,0,1,1,2,2,3,3,4,4,5,5,6,6],"right_children":[2,4,6,8,10,12,14,-1,-1,-1,-1,-1,-1,-1,-1],"split_conditions":[6.905271E-1,7.742865E-1,7.668212E-1,6.987598E-1,6.623174E-1,6.423928E-1,6.392007E-1,-1.4367375E-4,1.1048283E-3,-3.1031282E-3,-7.4597E-4,9.619483E-4,2.6333795E-3,7.0141087E-4,-1.0817057E-3],"split_indices":[51,56,51,58,51,7,0,0,0,0,0,0,0,0,0],"split_type":[0,0,0,0,0,0,0,0,0,0,0,0,0,0,0],"sum_hessian":[9.27E2,7.99E2,1.28E2,7.92E2,7E0,2.6E1,1.02E2,7.74E2,1.8E1,5E0,2E0,1.4E1,1.2E1,6.5E1,3.7E1],"tree_param":{"num_deleted":"0","num_feature":"60","num_nodes":"15","size_leaf_vector":"0"}},{"base_weights":[-5.559508E-4,-3.9142068E-3,4.3172034E-4,4.233687E-3,-4.604463E-3,5.554701E-4,-2.9247126E-2,8.363796E-3,-4.7321455E-3,-4.2884485E-3,-2.3399888E-2,1.7493113E-4,1.2013668E-2],"categories":[],"categories_nodes":[],"categories_segments":[],"categories_sizes":[],"default_left":[1,1,1,1,1,1,0,0,0,0,0,0,0],"id":52,"left_children":[1,3,5,7,9,11,-1,-1,-1,-1,-1,-1,-1],"loss_changes":[3.0797287E-3,1.2061864E-3,2.65328E-3,6.6908647E-4,1.0578767E-3,3.1198668E-3,0E0,0E0,0E0,0E0,0E0,0E0,0E0],"parents":[2147483647,0,0,1,1,2,2,3,3,4,4,5,5],"right_children":[2,4,6,8,10,12,-1,-1,-1,-1,-1,-1,-1],"split_conditions":[1.3184115E-1,2.2046383E-2,9.79683E-1,2.602661E-2,4.389925E-1,8.8224804E-1,-2.9247126E-3,8.3637965E-4,-4.7321455E-4,-4.2884485E-4,-2.3399887E-3,1.7493114E-5,1.2013669E-3],"split_indices":[59,0,35,20,15,38,0,0,0,0,0,0,0],"split_type":[0,0,0,0,0,0,0,0,0,0,0,0,0],"sum_hessian":[9.27E2,2.1E2,7.17E2,1.6E1,1.94E2,7.15E2,2E0,1.1E1,5E0,1.92E2,2E0,6.93E2,2.2E1],"tree_param":{"num_deleted":"0","num_feature":"60","num_nodes":"13","size_leaf_vector":"0"}},{"base_weights":[-5.047782E-4,-1.8225014E-3,1.6665859E-3,-1.0105722E-3,-9.524835E-3,1.4364169E-2,9.370944E-4,-1.8480874E-3,9.169564E-3,-2.2161288E-2,-3.2884933E-3,-2.2395588E-3,2.4236307E-2,-2.8072441E-2,1.8295582E-3],"categories":[],"categories_nodes":[],"categories_segments":[],"categories_sizes":[],"default_left":[1,1,1,1,1,1,1,0,0,0,0,0,0,0,0],"id":53,"left_children":[1,3,5,7,9,11,13,-1,-1,-1,-1,-1,-1,-1,-1],"loss_changes":[2.6582836E-3,3.6050417E-3,3.2377748E-3,4.48458E-3,4.261411E-3,3.16865E-3,8.672716E-3,0E0,0E0,0E0,0E0,0E0,0E0,0E0,0E0],"parents":[2147483647,0,0,1,1,2,2,3,3,4,4,5,5,6,6],"right_children":[2,4,6,8,10,12,14,-1,-1,-1,-1,-1,-1,-1,-1],"split_conditions":[4.5381156E-1,4.1390955E-1,4.0741283E-1,3.7786546E-1,4.0609956E-1,3.0666086E-1,3.0728295E-1,-1.8480874E-4,9.169564E-4,-2.2161289E-3,-3.2884933E-4,-2.2395588E-4,2.4236308E-3,-2.8072442E-3,1.8295582E-4],"split_indices":[51,52,41,59,57,38,7,0,0,0,0,0,0,0,0],"split_type":[0,0,0,0,0,0,0,0,0,0,0,0,0,0,0],"sum_hessian":[9.27E2,5.77E2,3.5E2,5.23E2,5.4E1,1.8E1,3.32E2,4.84E2,3.9E1,1.7E1,3.7E1,7E0,1.1E1,9E0,3.23E2],"tree_param":{"num_deleted":"0","num_feature":"60","num_nodes":"15","size_leaf_vector":"0"}},{"base_weights":[-4.567049E-4,-6.49953E-4,1.3194988E-2,-4.1107633E-4,-1.7211076E-2,2.9204369E-2,5.471736E-3,-9.123071E-4,7.4955616E-3,-3.0443072E-4,-2.7739674E-2,1.182431E-2,-7.340312E-4],"categories":[],"categories_nodes":[],"categories_segments":[],"categories_sizes":[],"default_left":[1,1,1,1,1,0,1,0,0,0,0,0,0],"id":54,"left_children":[1,3,5,7,9,-1,11,-1,-1,-1,-1,-1,-1],"loss_changes":[2.4567924E-3,3.6166816E-3,1.4475796E-3,3.5894355E-3,2.3055975E-3,0E0,4.0290534E-4,0E0,0E0,0E0,0E0,0E0,0E0],"parents":[2147483647,0,0,1,1,2,2,3,3,4,4,6,6],"right_children":[2,4,6,8,10,-1,12,-1,-1,-1,-1,-1,-1],"split_conditions":[9.173045E-1,8.9752734E-1,5.9864414E-1,8.16111E-1,7.9999626E-1,2.920437E-3,9.4301426E-1,-9.1230715E-5,7.495562E-4,-3.0443072E-5,-2.7739673E-3,1.182431E-3,-7.340312E-5],"split_indices":[19,15,56,38,33,0,19,0,0,0,0,0,0],"split_type":[0,0,0,0,0,0,0,0,0,0,0,0,0],"sum_hessian":[9.27E2,9.15E2,1.2E1,9.03E2,1.2E1,3E0,9E0,8.5E2,5.3E1,5E0,7E0,4E0,5E0],"tree_param":{"num_deleted":"0","num_feature":"60","num_nodes":"13","size_leaf_vector":"0"}},{"base_weights":[-4.089999E-4,-3.5827863E-3,3.7541043E-4,-4.418847E-3,1.9113156E-3,1.0596444E-3,-3.948336E-3,-2.3834908E-3,-7.957173E-3,9.5580565E-3,-4.7795563E-3,1.3434528E-4,1.0406041E-2,-1.9391377E-2,5.4089277E-4],"categories":[],"categories_nodes":[],"categories_segments":[],"categories_sizes":[],"default_left":[1,1,1,1,1,1,1,0,0,0,0,0,0,0,0],"id":55,"left_children":[1,3,5,7,9,11,13,-1,-1,-1,-1,-1,-1,-1,-1],"loss_changes":[2.311648E-3,8.536321E-4,2.2082324E-3,1.1333148E-3,1.3247675E-3,5.568051E-3,7.0818774E-3,0E0,0E0,0E0,0E0,0E0,0E0,0E0,0E0],"parents":[2147483647,0,0,1,1,2,2,3,3,4,4,5,5,6,6],"right_children":[2,4,6,8,10,12,14,-1,-1,-1,-1,-1,-1,-1,-1],"split_conditions":[1.1095035E-1,1.5930463E-1,7.698953E-1,7.3084325E-2,2.582944E-1,6.464603E-1,7.9999626E-1,-2.3834908E-4,-7.957173E-4,9.5580565E-4,-4.7795565E-4,1.3434527E-5,1.0406041E-3,-1.9391377E-3,5.4089276E-5],"split_indices":[54,33,14,45,33,17,14,0,0,0,0,0,0,0,0],"split_type":[0,0,0,0,0,0,0,0,0,0,0,0,0,0,0],"sum_hessian":[9.27E2,1.83E2,7.44E2,1.59E2,2.4E1,6.43E2,1.01E2,1.02E2,5.7E1,1.1E1,1.3E1,5.86E2,5.7E1,2.2E1,7.9E1],"tree_param":{"num_deleted":"0","num_feature":"60","num_nodes":"15","size_leaf_vector":"0"}},{"base_weights":[-3.6958975E-4,-5.466609E-4,1.2135545E-2,-1.3362132E-4,-9.358271E-3,2.6973478E-2,4.9868166E-3,-3.3578256E-4,2.5011225E-2,-2.1746717E-2,1.2825442E-3,1.0835111E-2,-7.178982E-4],"categories":[],"categories_nodes":[],"categories_segments":[],"categories_sizes":[],"default_left":[1,1,1,1,1,0,1,0,0,0,0,0,0],"id":56,"left_children":[1,3,5,7,9,-1,11,-1,-1,-1,-1,-1,-1],"loss_changes":[2.0615028E-3,3.3325716E-3,1.2444288E-3,4.461381E-3,5.43264E-3,0E0,3.4140705E-4,0E0,0E0,0E0,0E0,0E0,0E0],"parents":[2147483647,0,0,1,1,2,2,3,3,4,4,6,6],"right_children":[2,4,6,8,10,-1,12,-1,-1,-1,-1,-1,-1],"split_conditions":[9.173045E-1,8.288785E-1,5.9864414E-1,9.1290534E-1,8.532287E-1,2.697348E-3,9.4301426E-1,-3.3578257E-5,2.5011224E-3,-2.1746717E-3,1.2825443E-4,1.0835112E-3,-7.178982E-5],"split_indices":[19,19,56,40,30,0,19,0,0,0,0,0,0],"split_type":[0,0,0,0,0,0,0,0,0,0,0,0,0],"sum_hessian":[9.27E2,9.15E2,1.2E1,8.75E2,4E1,3E0,9E0,8.69E2,6E0,1.8E1,2.2E1,4E0,5E0],"tree_param":{"num_deleted":"0","num_feature":"60","num_nodes":"13","size_leaf_vector":"0"}},{"base_weights":[-3.2818448E-4,-3.08502E-3,4.577578E-4,-2.4379685E-3,-1.6977372E-2,1.04435105E-2,1.2946952E-4,7.2343036E-4,-4.4557466E-3,-2.7644314E-2,-7.0365146E-3,-8.108864E-3,2.2949243E-2,2.4010397E-4,-2.569151E-2],"categories":[],"categories_nodes":[],"categories_segments":[],"categories_sizes":[],"default_left":[1,1,1,1,1,1,1,0,0,0,0,0,0,0,0],"id":57,"left_children":[1,3,5,7,9,11,13,-1,-1,-1,-1,-1,-1,-1,-1],"loss_changes":[2.0121224E-3,1.8103572E-3,2.3687908E-3,1.2662655E-3,7.598272E-4,5.5223457E-3,2.008708E-3,0E0,0E0,0E0,0E0,0E0,0E0,0E0,0E0],"parents":[2147483647,0,0,1,1,2,2,3,3,4,4,5,5,6,6],"right_children":[2,4,6,8,10,12,14,-1,-1,-1,-1,-1,-1,-1,-1],"split_conditions":[1.1590527E-1,1.5528035E-1,6.586686E-2,6.3157775E-2,1.6268924E-1,4.5691587E-2,9.79683E-1,7.2343035E-5,-4.4557467E-4,-2.7644315E-3,-7.0365146E-4,-8.108864E-4,2.2949243E-3,2.4010396E-5,-2.5691509E-3],"split_indices":[18,27,0,19,23,2,35,0,0,0,0,0,0,0,0],"split_type":[0,0,0,0,0,0,0,0,0,0,0,0,0,0,0],"sum_hessian":[9.27E2,2.05E2,7.22E2,1.97E2,8E0,2.2E1,7E2,7.7E1,1.2E2,3E0,5E0,9E0,1.3E1,6.98E2,2E0],"tree_param":{"num_deleted":"0","num_feature":"60","num_nodes":"15","size_leaf_vector":"0"}},{"base_weights":[-3.006546E-4,-1.058335E-3,2.4105601E-3,-7.5221667E-4,-2.2901187E-2,7.010216E-3,-2.7891623E-3,-1.0983611E-3,1.2021846E-2,-3.269915E-2,1.0860443E-2,-6.1399606E-3,1.1254662E-2,-9.9297725E-3,3.4438493E-3],"categories":[],"categories_nodes":[],"categories_segments":[],"categories_sizes":[],"default_left":[1,1,1,1,1,1,1,0,0,0,0,0,0,0,0],"id":58,"left_children":[1,3,5,7,9,11,13,-1,-1,-1,-1,-1,-1,-1,-1],"loss_changes":[1.9088807E-3,4.8371702E-3,4.8746904E-3,3.1835425E-3,3.6630789E-3,6.097146E-3,4.306917E-3,0E0,0E0,0E0,0E0,0E0,0E0,0E0,0E0],"parents":[2147483647,0,0,1,1,2,2,3,3,4,4,5,5,6,6],"right_children":[2,4,6,8,10,12,14,-1,-1,-1,-1,-1,-1,-1,-1],"split_conditions":[6.046982E-1,6.473743E-1,7.0404315E-1,8.334162E-1,6.0592395E-1,3.5702085E-1,8.1362915E-1,-1.0983611E-4,1.2021846E-3,-3.269915E-3,1.0860444E-3,-6.1399606E-4,1.1254662E-3,-9.929773E-4,3.4438493E-4],"split_indices":[48,45,19,1,52,8,16,0,0,0,0,0,0,0,0],"split_type":[0,0,0,0,0,0,0,0,0,0,0,0,0,0,0],"sum_hessian":[9.27E2,7.25E2,2.02E2,7.16E2,9E0,1.07E2,9.5E1,6.98E2,1.8E1,7E0,2E0,2.6E1,8.1E1,4.4E1,5.1E1],"tree_param":{"num_deleted":"0","num_feature":"60","num_nodes":"15","size_leaf_vector":"0"}},{"base_weights":[-2.7191627E-4,-1.9407478E-4,-2.4208346E-2,-5.2012375E-4,8.931172E-3,-2.564982E-4,-1.8386373E-2,2.4465637E-2,4.4053094E-3],"categories":[],"categories_nodes":[],"categories_segments":[],"categories_sizes":[],"default_left":[1,1,0,1,1,0,0,0,0],"id":59,"left_children":[1,3,-1,5,7,-1,-1,-1,-1],"loss_changes":[1.7243951E-3,2.759752E-3,0E0,4.2107333E-3,2.1420408E-3,0E0,0E0,0E0,0E0],"parents":[2147483647,0,0,1,1,3,3,4,4],"right_children":[2,4,-1,6,8,-1,-1,-1,-1],"split_conditions":[9.79683E-1,8.6944306E-1,-2.4208347E-3,8.951709E-1,8.6106765E-1,-2.564982E-5,-1.8386374E-3,2.4465637E-3,4.4053094E-4],"split_indices":[35,12,0,32,14,0,0,0,0],"split_type":[0,0,0,0,0,0,0,0,0],"sum_hessian":[9.27E2,9.25E2,2E0,8.94E2,3.1E1,8.82E2,1.2E1,6E0,2.5E1],"tree_param":{"num_deleted":"0","num_feature":"60","num_nodes":"9","size_leaf_vector":"0"}},{"base_weights":[-2.462347E-4,-3.1683983E-3,3.7590487E-4,6.645739E-3,-3.6513773E-3,7.777105E-4,-5.5194497E-3,1.0762966E-2,-3.803961E-3,-3.94936E-3,6.1375676E-3,4.8774583E-4,2.3566293E-2,-1.6544705E-2,1.4160122E-3],"categories":[],"categories_nodes":[],"categories_segments":[],"categories_sizes":[],"default_left":[1,1,1,1,1,1,1,0,0,0,0,0,0,0,0],"id":60,"left_children":[1,3,5,7,9,11,13,-1,-1,-1,-1,-1,-1,-1,-1],"loss_changes":[1.688289E-3,7.9688965E-4,1.8187833E-3,3.8513215E-4,4.7928118E-4,4.732967E-3,3.7702245E-3,0E0,0E0,0E0,0E0,0E0,0E0,0E0,0E0],"parents":[2147483647,0,0,1,1,2,2,3,3,4,4,5,5,6,6],"right_children":[2,4,6,8,10,12,14,-1,-1,-1,-1,-1,-1,-1,-1],"split_conditions":[9.792608E-2,1.2646069E-2,8.3305836E-1,5.3047433E-2,1.1675502E-1,8.901391E-1,8.724172E-1,1.0762967E-3,-3.8039612E-4,-3.94936E-4,6.1375677E-4,4.8774582E-5,2.3566294E-3,-1.6544706E-3,1.4160122E-4],"split_indices":[49,7,28,0,51,40,27,0,0,0,0,0,0,0,0],"split_type":[0,0,0,0,0,0,0,0,0,0,0,0,0,0,0],"sum_hessian":[9.27E2,1.62E2,7.65E2,7E0,1.55E2,7.17E2,4.8E1,5E0,2E0,1.51E2,4E0,7.09E2,8E0,1.8E1,3E1],"tree_param":{"num_deleted":"0","num_feature":"60","num_nodes":"15","size_leaf_vector":"0"}},{"base_weights":[-2.1966327E-4,-3.816982E-4,1.1214465E-2,1.7687633E-4,-5.5101365E-3,2.4423726E-2,4.809314E-3,-5.414256E-4,9.709904E-3,-2.1598177E-2,-2.513478E-3,9.697449E-3,-6.568432E-5],"categories":[],"categories_nodes":[],"categories_segments":[],"categories_sizes":[],"default_left":[1,1,1,1,1,0,1,0,0,0,0,0,0],"id":61,"left_children":[1,3,5,7,9,-1,11,-1,-1,-1,-1,-1,-1],"loss_changes":[1.7236124E-3,2.6249618E-3,9.824336E-4,5.6682155E-3,4.284647E-3,0E0,2.3893345E-4,0E0,0E0,0E0,0E0,0E0,0E0],"parents":[2147483647,0,0,1,1,2,2,3,3,4,4,6,6],"right_children":[2,4,6,8,10,-1,12,-1,-1,-1,-1,-1,-1],"split_conditions":[9.173045E-1,7.698953E-1,5.9864414E-1,6.464603E-1,7.8600335E-1,2.4423727E-3,9.4301426E-1,-5.414256E-5,9.709904E-4,-2.1598178E-3,-2.513478E-4,9.697449E-4,-6.568432E-6],"split_indices":[19,14,56,17,14,0,19,0,0,0,0,0,0],"split_type":[0,0,0,0,0,0,0,0,0,0,0,0,0],"sum_hessian":[9.27E2,9.15E2,1.2E1,8.26E2,8.9E1,3E0,9E0,7.69E2,5.7E1,1.3E1,7.6E1,4E0,5E0],"tree_param":{"num_deleted":"0","num_feature":"60","num_nodes":"13","size_leaf_vector":"0"}},{"base_weights":[-1.9564168E-4,-3.9740815E-4,8.131533E-3,-2.870384E-6,-1.1185461E-2,3.5023708E-3,1.7550826E-2,-1.704883E-4,2.0830052E-2,-2.6362168E-2,-5.0281347E-3,9.4567295E-3,7.295236E-4,2.0475814E-2,4.4703484E-7],"categories":[],"categories_nodes":[],"categories_segments":[],"categories_sizes":[],"default_left":[1,1,1,1,1,1,1,0,0,0,0,0,0,0,0],"id":62,"left_children":[1,3,5,7,9,11,13,-1,-1,-1,-1,-1,-1,-1,-1],"loss_changes":[1.5624057E-3,3.8604264E-3,8.97806E-4,3.0625178E-3,2.8577815E-3,2.5726954E-4,3.5933335E-4,0E0,0E0,0E0,0E0,0E0,0E0,0E0,0E0],"parents":[2147483647,0,0,1,1,2,2,3,3,4,4,5,5,6,6],"right_children":[2,4,6,8,10,12,14,-1,-1,-1,-1,-1,-1,-1,-1],"split_conditions":[8.8868344E-1,8.288785E-1,8.872911E-1,9.1290534E-1,8.0703557E-1,6.099537E-1,9.060851E-1,-1.7048831E-5,2.0830052E-3,-2.6362168E-3,-5.028135E-4,9.45673E-4,7.295236E-5,2.0475814E-3,4.4703484E-8],"split_indices":[18,19,6,40,21,49,2,0,0,0,0,0,0,0,0],"split_type":[0,0,0,0,0,0,0,0,0,0,0,0,0,0,0],"sum_hessian":[9.27E2,9.06E2,2.1E1,8.75E2,3.1E1,1.5E1,6E0,8.69E2,6E0,8E0,2.3E1,4E0,1.1E1,5E0,1E0],"tree_param":{"num_deleted":"0","num_feature":"60","num_nodes":"15","size_leaf_vector":"0"}},{"base_weights":[-1.7393139E-4,-8.4772153E-4,2.236638E-3,-4.6902607E-4,-1.2944657E-2,2.8068291E-2,1.0329379E-3,-1.113876E-3,6.3571576E-3,-1.9717686E-2,4.3857866E-3,-1.5976131E-3,3.197623E-2,-4.3177962E-2,1.483396E-3],"categories":[],"categories_nodes":[],"categories_segments":[],"categories_sizes":[],"default_left":[1,1,1,1,1,1,1,0,0,0,0,0,0,0,0],"id":63,"left_children":[1,3,5,7,9,11,13,-1,-1,-1,-1,-1,-1,-1,-1],"loss_changes":[1.5091703E-3,3.3197745E-3,6.283001E-3,3.110395E-3,2.6688285E-3,1.0944777E-3,3.9475053E-3,0E0,0E0,0E0,0E0,0E0,0E0,0E0,0E0],"parents":[2147483647,0,0,1,1,2,2,3,3,4,4,5,5,6,6],"right_children":[2,4,6,8,10,12,14,-1,-1,-1,-1,-1,-1,-1,-1],"split_conditions":[6.046982E-1,6.417272E-1,6.084251E-1,5.2181315E-1,8.6752033E-1,2.9380974E-1,2.762989E-1,-1.113876E-4,6.357158E-4,-1.9717687E-3,4.3857866E-4,-1.5976132E-4,3.1976232E-3,-4.3177963E-3,1.483396E-4],"split_indices":[44,35,44,39,12,2,11,0,0,0,0,0,0,0,0],"split_type":[0,0,0,0,0,0,0,0,0,0,0,0,0,0,0],"sum_hessian":[9.27E2,7.25E2,2.02E2,7.04E2,2.1E1,8E0,1.94E2,6.44E2,6E1,1.5E1,6E0,1E0,7E0,1E0,1.93E2],"tree_param":{"num_deleted":"0","num_feature":"60","num_nodes":"15","size_leaf_vector":"0"}},{"base_weights":[-1.5884444E-4,-8.892955E-5,-2.1686295E-2,-3.6859798E-4,7.735826E-3,4.943173E-5,-9.545081E-3,2.8621912E-2,4.5882342E-3],"categories":[],"categories_nodes":[],"categories_segments":[],"categories_sizes":[],"default_left":[1,1,0,1,1,0,0,0,0],"id":64,"left_children":[1,3,-1,5,7,-1,-1,-1,-1],"loss_changes":[1.3947947E-3,2.0292515E-3,0E0,3.43373E-3,1.9723843E-3,0E0,0E0,0E0,0E0],"parents":[2147483647,0,0,1,1,3,3,4,4],"right_children":[2,4,-1,6,8,-1,-1,-1,-1],"split_conditions":[9.79683E-1,8.6944306E-1,-2.1686296E-3,8.047429E-1,7.3597467E-1,4.943173E-6,-9.5450814E-4,2.8621913E-3,4.5882343E-4],"split_indices":[35,12,0,13,24,0,0,0,0],"split_type":[0,0,0,0,0,0,0,0,0],"sum_hessian":[9.27E2,9.25E2,2E0,8.94E2,3.1E1,8.56E2,3.8E1,3E0,2.8E1],"tree_param":{"num_deleted":"0","num_feature":"60","num_nodes":"9","size_leaf_vector":"0"}},{"base_weights":[-1.4274419E-4,-6.295739E-4,2.877461E-3,-4.141416E-4,-2.1905601E-2,1.45508E-2,-2.1047702E-4,-6.466627E-4,9.09207E-3,-5.293429E-3,-2.6560754E-2,-2.50206E-3,1.76253E-2,1.1438349E-3,-3.4015656E-2],"categories":[],"categories_nodes":[],"categories_segments":[],"categories_sizes":[],"default_left":[1,1,1,1,1,1,1,0,0,0,0,0,0,0,0],"id":65,"left_children":[1,3,5,7,9,11,13,-1,-1,-1,-1,-1,-1,-1,-1],"loss_changes":[1.3662737E-3,3.657762E-3,4.6530673E-3,1.7587229E-3,4.7806045E-4,1.4596838E-3,4.754532E-3,0E0,0E0,0E0,0E0,0E0,0E0,0E0,0E0],"parents":[2147483647,0,0,1,1,2,2,3,3,4,4,5,5,6,6],"right_children":[2,4,6,8,10,12,14,-1,-1,-1,-1,-1,-1,-1,-1],"split_conditions":[6.905271E-1,7.742865E-1,7.668212E-1,6.987598E-1,3.204144E-1,5.193366E-1,8.1718487E-1,-6.4666274E-5,9.0920704E-4,-5.293429E-4,-2.6560754E-3,-2.50206E-4,1.7625301E-3,1.1438349E-4,-3.4015656E-3],"split_indices":[51,56,51,58,12,41,0,0,0,0,0,0,0,0,0],"split_type":[0,0,0,0,0,0,0,0,0,0,0,0,0,0,0],"sum_hessian":[9.27E2,7.99E2,1.28E2,7.92E2,7E0,2.6E1,1.02E2,7.74E2,1.8E1,2E0,5E0,4E0,2.2E1,9.9E1,3E0],"tree_param":{"num_deleted":"0","num_feature":"60","num_nodes":"15","size_leaf_vector":"0"}},{"base_weights":[-1.3290136E-4,-7.6321616E-5,-2.6291162E-2,-2.3613118E-4,1.2128835E-2,-1.179358E-4,-1.5567796E-2,3.1875312E-2,4.992008E-3],"categories":[],"categories_nodes":[],"categories_segments":[],"categories_sizes":[],"default_left":[1,1,0,1,1,0,0,0,0],"id":66,"left_children":[1,3,-1,5,7,-1,-1,-1,-1],"loss_changes":[1.3714591E-3,1.8109782E-3,0E0,1.6580768E-3,1.5320046E-3,0E0,0E0,0E0,0E0],"parents":[2147483647,0,0,1,1,3,3,4,4],"right_children":[2,4,-1,6,8,-1,-1,-1,-1],"split_conditions":[9.9441326E-1,9.173045E-1,-2.6291162E-3,9.357532E-1,8.034892E-1,-1.1793581E-5,-1.5567796E-3,3.1875314E-3,4.9920083E-4],"split_indices":[42,47,0,53,41,0,0,0,0],"split_type":[0,0,0,0,0,0,0,0,0],"sum_hessian":[9.27E2,9.26E2,1E0,9.15E2,1.1E1,9.09E2,6E0,2E0,9E0],"tree_param":{"num_deleted":"0","num_feature":"60","num_nodes":"9","size_leaf_vector":"0"}},{"base_weights":[-1.2015806E-4,-5.0988114E-3,1.5123299E-4,-3.8548664E-3,-9.440315E-3,3.5221E-4,-7.0399963E-3,-1.7181915E-3,-5.4278336E-3,-2.8722796E-3,-1.0723289E-2,6.0122934E-6,1.0614284E-2,-1.5237033E-2,1.1258706E-2],"categories":[],"categories_nodes":[],"categories_segments":[],"categories_sizes":[],"default_left":[1,1,1,1,1,1,1,0,0,0,0,0,0,0,0],"id":67,"left_children":[1,3,5,7,9,11,13,-1,-1,-1,-1,-1,-1,-1,-1],"loss_changes":[1.2546494E-3,2.228372E-4,1.275764E-3,1.2174982E-4,5.346595E-5,3.0481585E-3,3.7714327E-3,0E0,0E0,0E0,0E0,0E0,0E0,0E0,0E0],"parents":[2147483647,0,0,1,1,2,2,3,3,4,4,5,5,6,6],"right_children":[2,4,6,8,10,12,14,-1,-1,-1,-1,-1,-1,-1,-1],"split_conditions":[2.5053658E-2,9.094467E-2,8.8353634E-1,2.5053658E-2,6.69575E-2,8.532287E-1,9.38244E-1,-1.7181916E-4,-5.4278335E-4,-2.8722797E-4,-1.0723289E-3,6.012294E-7,1.0614285E-3,-1.5237033E-3,1.1258706E-3],"split_indices":[58,38,28,41,7,36,29,0,0,0,0,0,0,0,0],"split_type":[0,0,0,0,0,0,0,0,0,0,0,0,0,0,0],"sum_hessian":[9.27E2,4.7E1,8.8E2,3.8E1,9E0,8.57E2,2.3E1,1.7E1,2.1E1,2E0,7E0,8.3E2,2.7E1,1.6E1,7E0],"tree_param":{"num_deleted":"0","num_feature":"60","num_nodes":"15","size_leaf_vector":"0"}},{"base_weights":[-1.0965857E-4,-4.459904E-5,-2.0154813E-2,-2.0515725E-4,1.0429276E-2,-4.6801756E-4,7.547298E-3,2.8625797E-2,2.8808712E-4],"categories":[],"categories_nodes":[],"categories_segments":[],"categories_sizes":[],"default_left":[1,1,0,1,1,0,0,0,0],"id":68,"left_children":[1,3,-1,5,7,-1,-1,-1,-1],"loss_changes":[1.2093323E-3,1.5593631E-3,0E0,1.8640553E-3,2.575234E-3,0E0,0E0,0E0,0E0],"parents":[2147483647,0,0,1,1,3,3,4,4],"right_children":[2,4,-1,6,8,-1,-1,-1,-1],"split_conditions":[9.79683E-1,9.1290534E-1,-2.0154815E-3,8.6944306E-1,7.4858516E-1,-4.6801757E-5,7.547298E-4,2.86258E-3,2.8808712E-5],"split_indices":[35,40,0,12,16,0,0,0,0],"split_type":[0,0,0,0,0,0,0,0,0],"sum_hessian":[9.27E2,9.25E2,2E0,9.12E2,1.3E1,8.83E2,2.9E1,4E0,9E0],"tree_param":{"num_deleted":"0","num_feature":"60","num_nodes":"9","size_leaf_vector":"0"}},{"base_weights":[-9.699138E-5,-4.4903172E-5,-2.419138E-2,-1.8908725E-4,1.096489E-2,2.2932979E-4,-4.4474914E-3,2.0114372E-2,-1.5369853E-3],"categories":[],"categories_nodes":[],"categories_segments":[],"categories_sizes":[],"default_left":[1,1,0,1,1,0,0,0,0],"id":69,"left_children":[1,3,-1,5,7,-1,-1,-1,-1],"loss_changes":[1.1635848E-3,1.4736274E-3,0E0,1.6331384E-3,1.4035436E-3,0E0,0E0,0E0,0E0],"parents":[2147483647,0,0,1,1,3,3,4,4],"right_children":[2,4,-1,6,8,-1,-1,-1,-1],"split_conditions":[9.9441326E-1,9.173045E-1,-2.419138E-3,7.810931E-1,8.759217E-1,2.293298E-5,-4.4474914E-4,2.0114372E-3,-1.5369854E-4],"split_indices":[42,47,0,24,36,0,0,0,0],"split_type":[0,0,0,0,0,0,0,0,0],"sum_hessian":[9.27E2,9.26E2,1E0,9.15E2,1.1E1,8.34E2,8.1E1,6E0,5E0],"tree_param":{"num_deleted":"0","num_feature":"60","num_nodes":"9","size_leaf_vector":"0"}},{"base_weights":[-8.8357825E-5,-2.866419E-4,6.295297E-3,8.097423E-5,-1.2661453E-2,8.285446E-3,-1.3051093E-2,-5.95536E-4,3.672223E-3,-1.843953E-2,9.672056E-3,4.309123E-3,1.4216649E-2],"categories":[],"categories_nodes":[],"categories_segments":[],"categories_sizes":[],"default_left":[1,1,1,1,1,1,0,0,0,0,0,0,0],"id":70,"left_children":[1,3,5,7,9,11,-1,-1,-1,-1,-1,-1,-1],"loss_changes":[1.1764457E-3,4.099837E-3,1.1861955E-3,2.1304437E-3,3.5335105E-3,5.5193284E-4,0E0,0E0,0E0,0E0,0E0,0E0,0E0],"parents":[2147483647,0,0,1,1,2,2,3,3,4,4,5,5],"right_children":[2,4,6,8,10,12,-1,-1,-1,-1,-1,-1,-1],"split_conditions":[8.795514E-1,8.288785E-1,9.478692E-1,6.1277926E-1,9.136899E-1,7.883709E-1,-1.3051092E-3,-5.9553604E-5,3.6722232E-4,-1.8439529E-3,9.672056E-4,4.309123E-4,1.421665E-3],"split_indices":[19,19,31,20,32,47,0,0,0,0,0,0,0],"split_type":[0,0,0,0,0,0,0,0,0,0,0,0,0],"sum_hessian":[9.27E2,9E2,2.7E1,8.75E2,2.5E1,2.5E1,2E0,7.37E2,1.38E2,2E1,5E0,1.6E1,9E0],"tree_param":{"num_deleted":"0","num_feature":"60","num_nodes":"13","size_leaf_vector":"0"}},{"base_weights":[-7.9549136E-5,-2.2550926E-3,4.578731E-4,-1.8055318E-3,-2.2033952E-2,2.1173623E-3,-1.4109476E-3,-2.391603E-3,1.1167213E-2,5.5585214E-4,8.163761E-3,-9.887081E-3,7.736686E-4],"categories":[],"categories_nodes":[],"categories_segments":[],"categories_sizes":[],"default_left":[1,1,1,1,0,1,1,0,0,0,0,0,0],"id":71,"left_children":[1,3,5,7,-1,9,11,-1,-1,-1,-1,-1,-1],"loss_changes":[1.0860367E-3,1.5963088E-3,2.3134467E-3,1.4028425E-3,0E0,3.7248596E-3,6.5071504E-3,0E0,0E0,0E0,0E0,0E0,0E0],"parents":[2147483647,0,0,1,1,2,2,3,3,5,5,6,6],"right_children":[2,4,6,8,-1,10,12,-1,-1,-1,-1,-1,-1],"split_conditions":[1.032221E-1,4.4190112E-1,4.5381156E-1,3.2046947E-1,-2.2033954E-3,3.8104832E-1,5.2102774E-1,-2.391603E-4,1.1167213E-3,5.5585213E-5,8.163761E-4,-9.887081E-4,7.736686E-5],"split_indices":[16,53,6,58,0,6,6,0,0,0,0,0,0],"split_type":[0,0,0,0,0,0,0,0,0,0,0,0,0],"sum_hessian":[9.27E2,1.83E2,7.44E2,1.8E2,3E0,3.94E2,3.5E2,1.73E2,7E0,3.14E2,8E1,7.1E1,2.79E2],"tree_param":{"num_deleted":"0","num_feature":"60","num_nodes":"13","size_leaf_vector":"0"}},{"base_weights":[-7.306653E-5,1.8032477E-4,-4.6222764E-3,-2.1696254E-4,8.753032E-3,9.2369225E-4,-1.4224983E-2,-3.2061264E-6,-1.20018525E-2,-1.4655429E-3,1.3348901E-2,-2.8533628E-2,3.8386346E-3,-2.9117238E-2,3.9025215E-3],"categories":[],"categories_nodes":[],"categories_segments":[],"categories_sizes":[],"default_left":[1,1,1,1,1,1,1,0,0,0,0,0,0,0,0],"id":72,"left_children":[1,3,5,7,9,11,13,-1,-1,-1,-1,-1,-1,-1,-1],"loss_changes":[1.0705672E-3,2.9990277E-3,2.6226987E-3,2.1210404E-3,1.8511293E-3,2.8572544E-3,4.9729007E-3,0E0,0E0,0E0,0E0,0E0,0E0,0E0,0E0],"parents":[2147483647,0,0,1,1,2,2,3,3,4,4,5,5,6,6],"right_children":[2,4,6,8,10,12,14,-1,-1,-1,-1,-1,-1,-1,-1],"split_conditions":[8.3305836E-1,8.0298436E-1,7.9969573E-1,8.017647E-1,8.020854E-1,7.751597E-1,8.7484515E-1,-3.2061266E-7,-1.2001853E-3,-1.465543E-4,1.3348901E-3,-2.8533628E-3,3.8386346E-4,-2.911724E-3,3.9025216E-4],"split_indices":[28,34,57,31,35,32,27,0,0,0,0,0,0,0,0],"split_type":[0,0,0,0,0,0,0,0,0,0,0,0,0,0,0],"sum_hessian":[9.27E2,8.79E2,4.8E1,8.41E2,3.8E1,3.1E1,1.7E1,8.27E2,1.4E1,1.2E1,2.6E1,2E0,2.9E1,9E0,8E0],"tree_param":{"num_deleted":"0","num_feature":"60","num_nodes":"15","size_leaf_vector":"0"}},{"base_weights":[-7.115248E-5,-1.477178E-4,1.409235E-2,2.8814533E-4,-3.8243614E-3,-2.9322266E-5,1.6381616E-2,-1.4940789E-2,-4.098588E-4],"categories":[],"categories_nodes":[],"categories_segments":[],"categories_sizes":[],"default_left":[1,1,0,1,1,0,0,0,0],"id":73,"left_children":[1,3,-1,5,7,-1,-1,-1,-1],"loss_changes":[1.0084357E-3,1.4818244E-3,0E0,4.2257514E-3,3.7136693E-3,0E0,0E0,0E0,0E0],"parents":[2147483647,0,0,1,1,3,3,4,4],"right_children":[2,4,-1,6,8,-1,-1,-1,-1],"split_conditions":[9.5506644E-1,7.698953E-1,1.4092351E-3,7.394216E-1,7.9999626E-1,-2.9322266E-6,1.6381616E-3,-1.4940789E-3,-4.098588E-5],"split_indices":[12,14,0,13,14,0,0,0,0],"split_type":[0,0,0,0,0,0,0,0,0],"sum_hessian":[9.27E2,9.23E2,4E0,8.26E2,9.7E1,8.11E2,1.5E1,2.2E1,7.5E1],"tree_param":{"num_deleted":"0","num_feature":"60","num_nodes":"9","size_leaf_vector":"0"}},{"base_weights":[-6.241475E-5,9.591948E-5,-6.9055133E-3,-1.1783926E-4,1.6066393E-2,3.583169E-3,-1.5070622E-2,-7.9315517E-4,1.633051E-3,-9.939805E-3,2.5839547E-2,-6.0905516E-3,8.599128E-3,-4.6415925E-3,-1.8031232E-2],"categories":[],"categories_nodes":[],"categories_segments":[],"categories_sizes":[],"default_left":[1,1,1,1,1,1,1,0,0,0,0,0,0,0,0],"id":74,"left_children":[1,3,5,7,9,11,13,-1,-1,-1,-1,-1,-1,-1,-1],"loss_changes":[1.0061472E-3,3.101649E-3,1.8524665E-3,1.0619116E-3,3.3067914E-3,5.376033E-4,2.8682197E-4,0E0,0E0,0E0,0E0,0E0,0E0,0E0,0E0],"parents":[2147483647,0,0,1,1,2,2,3,3,4,4,5,5,6,6],"right_children":[2,4,6,8,10,12,14,-1,-1,-1,-1,-1,-1,-1,-1],"split_conditions":[8.919439E-1,8.7847495E-1,5.6468123E-1,5.2181315E-1,5.277266E-1,5.243414E-1,8.7812996E-1,-7.931552E-5,1.633051E-4,-9.939804E-4,2.5839547E-3,-6.0905516E-4,8.599128E-4,-4.6415927E-4,-1.8031233E-3],"split_indices":[57,58,12,39,23,8,56,0,0,0,0,0,0,0,0],"split_type":[0,0,0,0,0,0,0,0,0,0,0,0,0,0,0],"sum_hessian":[9.27E2,9.07E2,2E1,8.96E2,1.1E1,9E0,1.1E1,6.47E2,2.49E2,3E0,8E0,3E0,6E0,3E0,8E0],"tree_param":{"num_deleted":"0","num_feature":"60","num_nodes":"15","size_leaf_vector":"0"}},{"base_weights":[-5.6546207E-5,4.0630356E-4,-2.4599023E-3,-4.7804628E-4,6.9347126E-3,-3.0678904E-2,-1.2752548E-3,1.5566107E-4,-1.3454108E-2,4.0526193E-2,5.7510952E-3,-3.7407137E-2,-1.1481623E-2,1.5923295E-2,-2.1321943E-3],"categories":[],"categories_nodes":[],"categories_segments":[],"categories_sizes":[],"default_left":[1,1,1,1,1,1,1,0,0,0,0,0,0,0,0],"id":75,"left_children":[1,3,5,7,9,11,13,-1,-1,-1,-1,-1,-1,-1,-1],"loss_changes":[1.0333E-3,4.500792E-3,4.975313E-3,5.6513124E-3,3.4645586E-3,3.454876E-4,2.1709786E-3,0E0,0E0,0E0,0E0,0E0,0E0,0E0,0E0],"parents":[2147483647,0,0,1,1,2,2,3,3,4,4,5,5,6,6],"right_children":[2,4,6,8,10,12,14,-1,-1,-1,-1,-1,-1,-1,-1],"split_conditions":[6.537479E-1,5.6279767E-1,6.439099E-1,5.2750874E-1,4.1020182E-1,7.463844E-1,3.4132028E-1,1.5566107E-5,-1.3454108E-3,4.0526194E-3,5.7510956E-4,-3.7407137E-3,-1.1481623E-3,1.5923296E-3,-2.1321943E-4],"split_indices":[4,4,3,3,22,12,59,0,0,0,0,0,0,0,0],"split_type":[0,0,0,0,0,0,0,0,0,0,0,0,0,0,0],"sum_hessian":[9.27E2,7.78E2,1.49E2,6.86E2,9.2E1,5E0,1.44E2,6.55E2,3.1E1,2E0,9E1,3E0,2E0,6E0,1.38E2],"tree_param":{"num_deleted":"0","num_feature":"60","num_nodes":"15","size_leaf_vector":"0"}},{"base_weights":[-5.1120882E-5,-1.7180438E-4,8.456356E-3,-6.6365974E-6,-1.1644102E-2,2.1011375E-2,2.588713E-3,-1.6506E-4,1.0864157E-2,3.1472505E-3,-1.8567732E-2,6.2208413E-3,-8.6951256E-4],"categories":[],"categories_nodes":[],"categories_segments":[],"categories_sizes":[],"default_left":[1,1,1,1,1,0,1,0,0,0,0,0,0],"id":76,"left_children":[1,3,5,7,9,-1,11,-1,-1,-1,-1,-1,-1],"loss_changes":[9.5424167E-4,1.7356089E-3,9.0329634E-4,1.5586513E-3,1.389765E-3,0E0,1.310163E-4,0E0,0E0,0E0,0E0,0E0,0E0],"parents":[2147483647,0,0,1,1,2,2,3,3,4,4,6,6],"right_children":[2,4,6,8,10,-1,12,-1,-1,-1,-1,-1,-1],"split_conditions":[9.173045E-1,8.9752734E-1,5.9864414E-1,9.1290534E-1,6.2241423E-1,2.1011375E-3,9.4301426E-1,-1.6506001E-5,1.0864157E-3,3.1472507E-4,-1.8567732E-3,6.2208413E-4,-8.695126E-5],"split_indices":[19,15,56,29,46,0,19,0,0,0,0,0,0],"split_type":[0,0,0,0,0,0,0,0,0,0,0,0,0],"sum_hessian":[9.27E2,9.15E2,1.2E1,9.03E2,1.2E1,3E0,9E0,8.91E2,1.2E1,4E0,8E0,4E0,5E0],"tree_param":{"num_deleted":"0","num_feature":"60","num_nodes":"13","size_leaf_vector":"0"}},{"base_weights":[-4.3673834E-5,1.9330168E-4,-4.2986693E-3,4.863564E-5,1.8228276E-2,-2.0971617E-2,-1.4844994E-3,-1.8915307E-4,8.855042E-3,2.6819572E-2,5.07991E-3,-3.2460064E-2,5.166332E-3,3.899299E-3,-9.178625E-3],"categories":[],"categories_nodes":[],"categories_segments":[],"categories_sizes":[],"default_left":[1,1,1,1,1,1,1,0,0,0,0,0,0,0,0],"id":77,"left_children":[1,3,5,7,9,11,13,-1,-1,-1,-1,-1,-1,-1,-1],"loss_changes":[9.36561E-4,2.2950757E-3,2.2679726E-3,1.831887E-3,6.544895E-4,2.2696902E-3,1.8170059E-3,0E0,0E0,0E0,0E0,0E0,0E0,0E0,0E0],"parents":[2147483647,0,0,1,1,2,2,3,3,4,4,5,5,6,6],"right_children":[2,4,6,8,10,12,14,-1,-1,-1,-1,-1,-1,-1,-1],"split_conditions":[8.3305836E-1,9.0549994E-1,7.810931E-1,8.1670135E-1,8.00629E-1,8.0666006E-1,7.9505587E-1,-1.8915307E-5,8.8550424E-4,2.6819573E-3,5.07991E-4,-3.2460063E-3,5.166332E-4,3.8992992E-4,-9.178626E-4],"split_indices":[28,40,33,23,28,18,57,0,0,0,0,0,0,0,0],"split_type":[0,0,0,0,0,0,0,0,0,0,0,0,0,0,0],"sum_hessian":[9.27E2,8.79E2,4.8E1,8.73E2,6E0,6E0,4.2E1,8.51E2,2.2E1,3E0,3E0,4E0,2E0,2.5E1,1.7E1],"tree_param":{"num_deleted":"0","num_feature":"60","num_nodes":"15","size_leaf_vector":"0"}},{"base_weights":[-3.844878E-5,3.8281357E-4,-2.4323969E-3,-5.542326E-4,5.2790013E-3,-1.2764181E-2,1.0346966E-3,1.12440386E-4,-1.1240978E-2,8.450037E-3,-4.3990742E-3,3.5509109E-3,-1.8548286E-2,1.8322937E-2,-3.8714646E-4],"categories":[],"categories_nodes":[],"categories_segments":[],"categories_sizes":[],"default_left":[1,1,1,1,1,1,1,0,0,0,0,0,0,0,0],"id":78,"left_children":[1,3,5,7,9,11,13,-1,-1,-1,-1,-1,-1,-1,-1],"loss_changes":[9.368008E-4,3.6274092E-3,4.992362E-3,4.7319746E-3,3.934742E-3,3.3687507E-3,2.588116E-3,0E0,0E0,0E0,0E0,0E0,0E0,0E0,0E0],"parents":[2147483647,0,0,1,1,2,2,3,3,4,4,5,5,6,6],"right_children":[2,4,6,8,10,12,14,-1,-1,-1,-1,-1,-1,-1,-1],"split_conditions":[6.701241E-1,5.421008E-1,7.582924E-1,5.012574E-1,8.288785E-1,4.2755187E-1,4.0541968E-1,1.1244038E-5,-1.1240978E-3,8.450037E-4,-4.3990742E-4,3.550911E-4,-1.8548286E-3,1.8322937E-3,-3.8714647E-5],"split_indices":[4,13,5,12,54,56,39,0,0,0,0,0,0,0,0],"split_type":[0,0,0,0,0,0,0,0,0,0,0,0,0,0,0],"sum_hessian":[9.27E2,7.89E2,1.38E2,6.63E2,1.26E2,3.4E1,1.04E2,6.25E2,3.8E1,9.5E1,3.1E1,9E0,2.5E1,7E0,9.7E1],"tree_param":{"num_deleted":"0","num_feature":"60","num_nodes":"15","size_leaf_vector":"0"}},{"base_weights":[-3.5052486E-5,-3.4304918E-3,2.5025287E-4,-2.5825512E-3,-1.4276386E-2,1.3044928E-3,-1.2732511E-3,-3.3379798E-3,7.6034437E-3,-2.0149069E-2,-3.6449071E-3,1.563783E-4,7.3407944E-3,-9.906871E-3,3.992559E-4],"categories":[],"categories_nodes":[],"categories_segments":[],"categories_sizes":[],"default_left":[1,1,1,1,1,1,1,0,0,0,0,0,0,0,0],"id":79,"left_children":[1,3,5,7,9,11,13,-1,-1,-1,-1,-1,-1,-1,-1],"loss_changes":[8.998464E-4,6.252911E-4,1.378122E-3,5.4862595E-4,2.3873511E-4,3.5125474E-3,5.0723213E-3,0E0,0E0,0E0,0E0,0E0,0E0,0E0,0E0],"parents":[2147483647,0,0,1,1,2,2,3,3,4,4,5,5,6,6],"right_children":[2,4,6,8,10,12,14,-1,-1,-1,-1,-1,-1,-1,-1],"split_conditions":[6.115341E-2,1.0675223E-1,4.5381156E-1,4.0427744E-2,1.3374299E-1,3.8104832E-1,5.0665045E-1,-3.3379797E-4,7.603444E-4,-2.0149068E-3,-3.6449073E-4,1.563783E-5,7.3407945E-4,-9.906872E-4,3.992559E-5],"split_indices":[59,2,6,58,0,6,5,0,0,0,0,0,0,0,0],"split_type":[0,0,0,0,0,0,0,0,0,0,0,0,0,0,0],"sum_hessian":[9.27E2,7.1E1,8.56E2,6.7E1,4E0,5.06E2,3.5E2,6.3E1,4E0,2E0,2E0,4.26E2,8E1,5.6E1,2.94E2],"tree_param":{"num_deleted":"0","num_feature":"60","num_nodes":"15","size_leaf_vector":"0"}},{"base_weights":[-3.387022E-5,4.1484606E-4,-2.0811034E-3,-3.3160104E-4,8.162791E-3,-6.2526925E-3,1.305459E-3,2.593954E-4,-7.972463E-3,1.578955E-2,-6.724E-4,-2.595122E-3,-1.6896315E-2,2.1749582E-2,-3.5447566E-4],"categories":[],"categories_nodes":[],"categories_segments":[],"categories_sizes":[],"default_left":[1,1,1,1,1,1,1,0,0,0,0,0,0,0,0],"id":80,"left_children":[1,3,5,7,9,11,13,-1,-1,-1,-1,-1,-1,-1,-1],"loss_changes":[8.53349E-4,4.409681E-3,2.3674294E-3,3.1450104E-3,4.525337E-3,2.8758869E-3,3.1637494E-3,0E0,0E0,0E0,0E0,0E0,0E0,0E0,0E0],"parents":[2147483647,0,0,1,1,2,2,3,3,4,4,5,5,6,6],"right_children":[2,4,6,8,10,12,14,-1,-1,-1,-1,-1,-1,-1,-1],"split_conditions":[6.395322E-1,6.1277926E-1,7.7867496E-1,5.456795E-1,8.103149E-1,7.987195E-1,4.0950716E-1,2.593954E-5,-7.972463E-4,1.578955E-3,-6.724E-5,-2.595122E-4,-1.6896315E-3,2.1749584E-3,-3.5447567E-5],"split_indices":[1,20,2,19,37,28,39,0,0,0,0,0,0,0,0],"split_type":[0,0,0,0,0,0,0,0,0,0,0,0,0,0,0],"sum_hessian":[9.27E2,7.61E2,1.66E2,6.95E2,6.6E1,7.4E1,9.2E1,6.46E2,4.9E1,3.5E1,3.1E1,5.6E1,1.8E1,6E0,8.6E1],"tree_param":{"num_deleted":"0","num_feature":"60","num_nodes":"15","size_leaf_vector":"0"}},{"base_weights":[-2.9475235E-5,-5.388024E-4,1.7694631E-3,-2.6029034E-4,-1.8567784E-2,5.316792E-3,-2.3939367E-3,-4.605447E-4,2.344648E-2,-3.254606E-2,-1.4948795E-3,3.1077033E-3,1.4636329E-2,2.6846489E-2,-3.311435E-3],"categories":[],"categories_nodes":[],"categories_segments":[],"categories_sizes":[],"default_left":[1,1,1,1,1,1,1,0,0,0,0,0,0,0,0],"id":81,"left_children":[1,3,5,7,9,11,13,-1,-1,-1,-1,-1,-1,-1,-1],"loss_changes":[8.512317E-4,3.6305801E-3,3.0403626E-3,3.4004305E-3,2.5764946E-3,2.2397474E-3,2.6375642E-3,0E0,0E0,0E0,0E0,0E0,0E0,0E0,0E0],"parents":[2147483647,0,0,1,1,2,2,3,3,4,4,5,5,6,6],"right_children":[2,4,6,8,10,12,14,-1,-1,-1,-1,-1,-1,-1,-1],"split_conditions":[6.0381556E-1,6.325907E-1,7.75897E-1,6.2042224E-1,6.04343E-1,7.3814785E-1,4.0950716E-1,-4.605447E-5,2.3446481E-3,-3.254606E-3,-1.4948795E-4,3.1077032E-4,1.4636329E-3,2.6846488E-3,-3.311435E-4],"split_indices":[27,30,25,30,47,25,39,0,0,0,0,0,0,0,0],"split_type":[0,0,0,0,0,0,0,0,0,0,0,0,0,0,0],"sum_hessian":[9.27E2,7.23E2,2.04E2,7.13E2,1E1,1.1E2,9.4E1,7.08E2,5E0,5E0,5E0,9E1,2E1,2E0,9.2E1],"tree_param":{"num_deleted":"0","num_feature":"60","num_nodes":"15","size_leaf_vector":"0"}},{"base_weights":[-2.3269631E-5,2.0124968E-5,-2.0125031E-2,-1.8360466E-4,5.2175657E-3,1.0358775E-4,-7.442483E-3,-1.2544408E-2,7.2747637E-3],"categories":[],"categories_nodes":[],"categories_segments":[],"categories_sizes":[],"default_left":[1,1,0,1,1,0,0,0,0],"id":82,"left_children":[1,3,-1,5,7,-1,-1,-1,-1],"loss_changes":[8.099067E-4,9.82533E-4,0E0,1.8624034E-3,1.3701541E-3,0E0,0E0,0E0,0E0],"parents":[2147483647,0,0,1,1,3,3,4,4],"right_children":[2,4,-1,6,8,-1,-1,-1,-1],"split_conditions":[9.9441326E-1,8.634552E-1,-2.012503E-3,8.300239E-1,7.672851E-1,1.0358775E-5,-7.4424833E-4,-1.2544409E-3,7.274764E-4],"split_indices":[42,37,0,53,53,0,0,0,0],"split_type":[0,0,0,0,0,0,0,0,0],"sum_hessian":[9.27E2,9.26E2,1E0,8.92E2,3.4E1,8.59E2,3.3E1,3E0,3.1E1],"tree_param":{"num_deleted":"0","num_feature":"60","num_nodes":"9","size_leaf_vector":"0"}},{"base_weights":[-2.447677E-5,-2.0414866E-3,4.0476222E-4,3.023085E-3,-2.8531437E-3,2.145249E-3,-8.222135E-4,1.0351324E-2,4.1238923E-4,-1.8997646E-3,-7.661794E-3,4.468131E-4,1.2401422E-2,-1.4798494E-2,-2.7286095E-4],"categories":[],"categories_nodes":[],"categories_segments":[],"categories_sizes":[],"default_left":[1,1,1,1,1,1,1,0,0,0,0,0,0,0,0],"id":83,"left_children":[1,3,5,7,9,11,13,-1,-1,-1,-1,-1,-1,-1,-1],"loss_changes":[8.0426945E-4,6.786687E-4,1.6375836E-3,4.3576266E-4,6.318542E-4,5.516425E-3,3.4510193E-3,0E0,0E0,0E0,0E0,0E0,0E0,0E0,0E0],"parents":[2147483647,0,0,1,1,2,2,3,3,4,4,5,5,6,6],"right_children":[2,4,6,8,10,12,14,-1,-1,-1,-1,-1,-1,-1,-1],"split_conditions":[9.792608E-2,5.8319293E-2,3.566524E-1,1.2646069E-2,9.861398E-2,3.147254E-1,3.047852E-1,1.0351324E-3,4.1238924E-5,-1.8997646E-4,-7.661794E-4,4.468131E-5,1.2401422E-3,-1.4798495E-3,-2.7286096E-5],"split_indices":[49,1,15,7,57,23,28,0,0,0,0,0,0,0,0],"split_type":[0,0,0,0,0,0,0,0,0,0,0,0,0,0,0],"sum_hessian":[9.27E2,1.62E2,7.65E2,2.2E1,1.4E2,3.16E2,4.49E2,5E0,1.7E1,1.18E2,2.2E1,2.72E2,4.4E1,1.6E1,4.33E2],"tree_param":{"num_deleted":"0","num_feature":"60","num_nodes":"15","size_leaf_vector":"0"}},{"base_weights":[-2.21333E-5,-8.958997E-5,1.2448287E-2,2.6690663E-4,-3.0970706E-3,-2.631491E-4,6.9273305E-3,-2.2027522E-2,-1.3988215E-3],"categories":[],"categories_nodes":[],"categories_segments":[],"categories_sizes":[],"default_left":[1,1,0,1,1,0,0,0,0],"id":84,"left_children":[1,3,-1,5,7,-1,-1,-1,-1],"loss_changes":[7.81761E-4,9.914994E-4,0E0,2.9214604E-3,3.1197527E-3,0E0,0E0,0E0,0E0],"parents":[2147483647,0,0,1,1,3,3,4,4],"right_children":[2,4,-1,6,8,-1,-1,-1,-1],"split_conditions":[9.5506644E-1,7.698953E-1,1.2448287E-3,6.4329576E-1,7.4232906E-1,-2.631491E-5,6.9273304E-4,-2.2027523E-3,-1.3988215E-4],"split_indices":[12,14,0,17,12,0,0,0,0],"split_type":[0,0,0,0,0,0,0,0,0],"sum_hessian":[9.27E2,9.23E2,4E0,8.26E2,9.7E1,7.66E2,6E1,7E0,9E1],"tree_param":{"num_deleted":"0","num_feature":"60","num_nodes":"9","size_leaf_vector":"0"}},{"base_weights":[-2.0388932E-5,-1.617301E-4,5.807649E-3,7.291786E-5,-1.0572013E-2,2.3874342E-3,1.2795619E-2,-7.3701485E-5,1.6210258E-2,-1.829034E-2,-2.5942596E-3,7.793677E-3,-6.41197E-5,1.5165289E-2,-7.112026E-4],"categories":[],"categories_nodes":[],"categories_segments":[],"categories_sizes":[],"default_left":[1,1,1,1,1,1,1,0,0,0,0,0,0,0,0],"id":85,"left_children":[1,3,5,7,9,11,13,-1,-1,-1,-1,-1,-1,-1,-1],"loss_changes":[7.6537154E-4,2.2163468E-3,4.952591E-4,2.1022437E-3,1.1840486E-3,2.1255885E-4,2.3483264E-4,0E0,0E0,0E0,0E0,0E0,0E0,0E0,0E0],"parents":[2147483647,0,0,1,1,2,2,3,3,4,4,5,5,6,6],"right_children":[2,4,6,8,10,12,14,-1,-1,-1,-1,-1,-1,-1,-1],"split_conditions":[8.8868344E-1,8.532287E-1,8.872911E-1,8.4950083E-1,8.759217E-1,6.099537E-1,9.060851E-1,-7.3701485E-6,1.6210258E-3,-1.8290341E-3,-2.5942596E-4,7.793677E-4,-6.41197E-6,1.5165289E-3,-7.112027E-5],"split_indices":[18,18,6,16,27,49,2,0,0,0,0,0,0,0,0],"split_type":[0,0,0,0,0,0,0,0,0,0,0,0,0,0,0],"sum_hessian":[9.27E2,9.06E2,2.1E1,8.87E2,1.9E1,1.5E1,6E0,8.8E2,7E0,9E0,1E1,4E0,1.1E1,5E0,1E0],"tree_param":{"num_deleted":"0","num_feature":"60","num_nodes":"15","size_leaf_vector":"0"}},{"base_weights":[-1.6467076E-5,-5.0491593E-3,1.3995006E-4,-3.4743883E-3,-9.2771305E-3,9.324866E-4,-1.1221338E-3,-6.5205526E-4,-4.748007E-3,2.8360632E-4,1.4098839E-2,-4.9254037E-3,1.5549052E-3],"categories":[],"categories_nodes":[],"categories_segments":[],"categories_sizes":[],"default_left":[1,1,1,1,0,1,1,0,0,0,0,0,0],"id":86,"left_children":[1,3,5,7,-1,9,11,-1,-1,-1,-1,-1,-1],"loss_changes":[7.3122757E-4,1.5419407E-4,9.022694E-4,7.598472E-5,0E0,4.7290376E-3,3.550821E-3,0E0,0E0,0E0,0E0,0E0,0E0],"parents":[2147483647,0,0,1,1,2,2,3,3,5,5,6,6],"right_children":[2,4,6,8,-1,10,12,-1,-1,-1,-1,-1,-1],"split_conditions":[1.8185396E-2,9.296043E-2,4.5697284E-1,2.5053658E-2,-9.2771306E-4,5.418135E-1,6.0381556E-1,-6.5205524E-5,-4.7480068E-4,2.8360633E-5,1.409884E-3,-4.9254036E-4,1.5549052E-4],"split_indices":[57,37,26,41,0,39,27,0,0,0,0,0,0],"split_type":[0,0,0,0,0,0,0,0,0,0,0,0,0],"sum_hessian":[9.27E2,2.7E1,9E2,2.1E1,6E0,5.53E2,3.47E2,7E0,1.4E1,5.28E2,2.5E1,1.43E2,2.04E2],"tree_param":{"num_deleted":"0","num_feature":"60","num_nodes":"13",